#ifndef MODEL_WEIGHTS_H
#define MODEL_WEIGHTS_H

/* Auto-generated DS-CNN + SE Float32 Weights */

#define NUM_CLASSES     6
#define FRAME_WINDOW    32
#define MEL_NUM_FILTERS  20
#define CONV1_OUT       32
#define CONV2_OUT       48
#define CONV3_OUT       64
#define POOL1_LEN       (32 / 2)
#define POOL2_LEN       (32 / 4)
#define HAS_SE          1
#define SE_REDUCTION    4
#define SE1_HIDDEN      12
#define SE2_HIDDEN      16
#define CONF_THRESHOLD  0.5000f
#define MARGIN_THRESHOLD 0.1000f
#define NOISE_INDEX     5

static const char* class_labels[NUM_CLASSES] = {
    "backward",
    "forward",
    "start",
    "stop",
    "turn",
    "noise",
};

static const char* class_display[NUM_CLASSES] = {
    "backward",
    "forward",
    "start",
    "stop",
    "turn",
    "noise",
};

static const int class_to_cmd[NUM_CLASSES] = {2, 1, 4, 5, 3, 0};

static const float conv1_weight[3200] = {
     -0.04699019f,  -0.06481931f,  -0.01047046f,   0.01658712f,   0.02078939f,  -0.00561903f,   0.05365261f,  -0.05416011f,
      0.01285417f,   0.03812709f,   0.03495466f,  -0.05364101f,   0.03502434f,  -0.05688455f,  -0.03857031f,  -0.06875582f,
      0.04211739f,   0.00130220f,  -0.11165643f,  -0.01716234f,   0.03408343f,  -0.00196833f,  -0.00047264f,  -0.07876875f,
      0.06510194f,   0.04561006f,  -0.07619604f,   0.03590605f,   0.03001441f,   0.05864289f,  -0.04664262f,   0.03190340f,
     -0.08909274f,   0.01053058f,  -0.03106934f,  -0.06817798f,   0.02790031f,   0.08946242f,  -0.06684046f,   0.11217123f,
      0.09719216f,   0.08351169f,  -0.03054614f,   0.09478477f,   0.00370279f,   0.05318303f,   0.05174364f,  -0.12428044f,
     -0.02610603f,   0.01694929f,   0.09256327f,   0.08768684f,  -0.00684549f,   0.00896882f,  -0.01054864f,   0.09443018f,
     -0.03988935f,   0.14448804f,  -0.04166419f,  -0.04695884f,  -0.11109803f,   0.02128173f,  -0.05835933f,  -0.04499325f,
     -0.03928829f,   0.04051971f,   0.04987493f,  -0.12641943f,   0.07456526f,   0.03065035f,   0.05836635f,   0.04971993f,
      0.07025295f,  -0.08942313f,  -0.02634993f,  -0.05402082f,   0.04148443f,  -0.08347031f,   0.02590355f,   0.01385629f,
      0.05113500f,   0.07430474f,   0.05705050f,  -0.02565365f,  -0.05910773f,  -0.01315636f,  -0.00191890f,   0.03953673f,
     -0.02812526f,  -0.03711123f,  -0.02714054f,  -0.04909364f,  -0.16823810f,  -0.10058029f,  -0.13259582f,   0.09919647f,
     -0.05349688f,  -0.08010542f,   0.05794944f,   0.09911414f,  -0.01361754f,  -0.02346696f,   0.04484821f,   0.04674371f,
      0.08423778f,   0.02904272f,   0.02971223f,   0.11953457f,  -0.04425840f,  -0.05793491f,  -0.00030526f,  -0.07248647f,
      0.01116490f,   0.04103751f,  -0.07817279f,  -0.02686689f,  -0.01023587f,   0.02010426f,   0.03784239f,  -0.03778548f,
      0.09642186f,  -0.09812775f,   0.00803693f,  -0.10085909f,   0.00989146f,   0.06876051f,  -0.00113412f,   0.02960524f,
      0.08133040f,   0.01947221f,   0.01203388f,  -0.05298338f,  -0.05439736f,   0.05991453f,   0.12180114f,   0.04429743f,
      0.03168873f,  -0.04782315f,   0.07864149f,  -0.05164153f,  -0.10694225f,  -0.02118089f,   0.01539356f,  -0.02866719f,
      0.02475373f,   0.11423964f,   0.04749979f,   0.01669221f,  -0.06199045f,  -0.05417498f,  -0.02102172f,   0.04771535f,
     -0.07337434f,  -0.08118332f,   0.00545717f,  -0.06638658f,   0.03945325f,  -0.07811601f,   0.03670120f,  -0.04808582f,
      0.04641375f,  -0.08890703f,   0.12927575f,   0.01325890f,   0.04996697f,   0.04831783f,   0.05192959f,  -0.09914995f,
     -0.04198221f,   0.08868615f,  -0.09740877f,  -0.12162579f,  -0.00560116f,  -0.05534284f,   0.06266458f,  -0.03296685f,
      0.01500077f,   0.00420911f,  -0.04546794f,  -0.08697020f,   0.08416076f,   0.04338606f,   0.05304694f,   0.00642178f,
      0.04591887f,   0.09840436f,   0.02894942f,  -0.06546702f,  -0.03871039f,  -0.06217010f,   0.08591741f,   0.11081009f,
      0.11183744f,   0.11641636f,  -0.04463580f,  -0.08936808f,  -0.08490580f,   0.09941453f,   0.11509503f,  -0.00720536f,
      0.00909892f,   0.03288153f,   0.03848812f,   0.00716266f,   0.00377764f,   0.04199551f,  -0.08890715f,  -0.10838511f,
     -0.02687145f,   0.05635546f,   0.00878379f,  -0.04132526f,   0.01737700f,   0.02314373f,  -0.08653538f,  -0.02804229f,
      0.06038211f,   0.05081157f,   0.12013388f,   0.06612720f,   0.01496900f,  -0.08218200f,  -0.02525508f,  -0.05741193f,
     -0.07288874f,  -0.08258232f,  -0.09079317f,   0.04544687f,   0.04676377f,  -0.10902740f,  -0.01811972f,   0.06280942f,
     -0.01660131f,   0.08433092f,  -0.01238022f,   0.00548047f,   0.00986883f,  -0.09444947f,   0.01529370f,   0.00062919f,
     -0.05599774f,  -0.02310322f,   0.12476674f,  -0.03603179f,   0.13704455f,   0.01116059f,   0.12697136f,   0.09127094f,
     -0.02960291f,   0.03032335f,   0.04430614f,  -0.02186340f,  -0.01028718f,  -0.00849054f,  -0.09761376f,  -0.05527397f,
     -0.02152397f,  -0.04699191f,  -0.06672798f,   0.06431383f,   0.02597233f,  -0.12270515f,   0.00945767f,   0.02876848f,
     -0.06439186f,   0.05738118f,   0.03522537f,  -0.01439849f,  -0.04351451f,  -0.06113185f,  -0.07875489f,   0.02306011f,
     -0.04233578f,   0.08433971f,  -0.03473494f,   0.06155908f,  -0.02942707f,   0.01677889f,  -0.07854304f,   0.09194321f,
     -0.05412082f,   0.10392160f,   0.05222856f,  -0.08150694f,  -0.07111776f,  -0.04095921f,  -0.05240100f,  -0.05852735f,
      0.01257790f,  -0.04542086f,   0.14392063f,   0.02004188f,   0.07022008f,  -0.04817364f,   0.07507095f,  -0.07233326f,
      0.00379050f,  -0.08452055f,   0.12112977f,  -0.05792422f,   0.00594163f,  -0.04369477f,  -0.01082504f,  -0.06304871f,
      0.03286272f,  -0.05803280f,   0.05152629f,  -0.04007931f,  -0.08286703f,  -0.10417055f,  -0.07181989f,  -0.07825559f,
     -0.06039708f,  -0.01312020f,   0.04812849f,  -0.02341170f,  -0.05021197f,  -0.05233016f,   0.03477106f,   0.02125164f,
      0.02685066f,   0.03400246f,  -0.02028799f,   0.03590519f,  -0.00448395f,  -0.06786703f,  -0.03607995f,   0.01396701f,
      0.02156594f,  -0.02368817f,  -0.04786015f,   0.08492000f,  -0.01076197f,   0.02773434f,   0.04797408f,  -0.03030281f,
     -0.10178749f,  -0.12323520f,   0.06290305f,  -0.02215903f,  -0.06834711f,  -0.08031270f,   0.07893585f,  -0.10763317f,
     -0.07949762f,   0.01370239f,  -0.07027683f,   0.01172950f,   0.06608294f,   0.02634791f,  -0.01060044f,  -0.07283869f,
      0.02238694f,   0.02334819f,   0.00591497f,  -0.08123273f,  -0.01867758f,  -0.03721905f,  -0.14687777f,  -0.13689215f,
     -0.04060451f,  -0.10555384f,   0.05833274f,   0.09582430f,   0.06036475f,  -0.07367815f,   0.04609100f,   0.03584657f,
     -0.07992490f,  -0.07777683f,   0.08549909f,  -0.09283055f,   0.05663526f,  -0.01699536f,   0.11687414f,  -0.07801061f,
      0.05597920f,   0.05109970f,  -0.03674885f,  -0.02825825f,  -0.01141960f,  -0.07662297f,  -0.05385375f,  -0.03992831f,
     -0.09966572f,  -0.03176776f,  -0.06116569f,  -0.02715422f,  -0.04054045f,   0.05618395f,   0.11449956f,   0.08190344f,
      0.11460857f,   0.01863386f,   0.10585620f,  -0.01130755f,  -0.03021516f,  -0.02115822f,  -0.00297100f,  -0.01557683f,
      0.06029132f,  -0.05792170f,   0.02788352f,  -0.04366924f,   0.04913514f,  -0.09735292f,  -0.08961163f,  -0.00125962f,
      0.06506223f,   0.01306983f,  -0.05543987f,  -0.11423369f,  -0.06088454f,  -0.00870465f,   0.00441858f,   0.00190368f,
     -0.09354653f,  -0.04302991f,  -0.03796357f,   0.06013687f,  -0.05316335f,  -0.04157184f,   0.02003443f,  -0.00884226f,
      0.04074098f,  -0.07667997f,  -0.05574467f,   0.08624703f,  -0.05150222f,  -0.02269516f,   0.01442125f,  -0.00307114f,
     -0.02630096f,   0.06395327f,   0.07975228f,   0.00766956f,   0.05303371f,  -0.00281949f,  -0.01530771f,   0.07538450f,
      0.04748483f,  -0.08900294f,   0.01480093f,   0.05312329f,   0.09521557f,   0.02408732f,  -0.00399973f,   0.04892928f,
      0.04718068f,   0.08118981f,   0.01974680f,  -0.09037845f,   0.02103662f,  -0.06032031f,  -0.01249369f,   0.03834233f,
      0.04329235f,  -0.00489528f,   0.01739551f,   0.00342308f,  -0.03746741f,   0.06735980f,  -0.11047773f,  -0.07453763f,
     -0.11969309f,   0.08356656f,   0.03714282f,  -0.08113045f,   0.03585392f,  -0.05160474f,  -0.04551484f,  -0.02177793f,
     -0.15371956f,  -0.05406201f,  -0.00210359f,  -0.05308978f,   0.10727234f,  -0.12501229f,  -0.02960686f,  -0.02382594f,
      0.08111387f,   0.14090286f,  -0.05424777f,   0.01294195f,   0.07089898f,  -0.02522389f,   0.09299424f,  -0.02279205f,
      0.06833784f,   0.00590602f,   0.01608368f,   0.08416587f,  -0.04417235f,   0.03944549f,   0.06611485f,   0.03615283f,
      0.02296282f,  -0.03150898f,  -0.04399946f,  -0.08565402f,   0.05048456f,   0.03676125f,   0.05951823f,  -0.03286685f,
      0.08339663f,   0.09016105f,   0.05803705f,   0.07307789f,  -0.01460858f,   0.02376046f,  -0.05019003f,  -0.07124467f,
      0.02684845f,   0.06505786f,   0.10423636f,  -0.02992369f,   0.04408409f,   0.03426586f,   0.06859678f,  -0.05469673f,
     -0.01279137f,   0.04408878f,  -0.11629838f,  -0.05529059f,  -0.03456854f,  -0.02477334f,  -0.07416657f,   0.08165210f,
     -0.07267799f,   0.00816532f,  -0.05205275f,   0.07242515f,  -0.07582752f,   0.01967987f,   0.03791539f,   0.09772052f,
     -0.03942379f,  -0.03900237f,   0.08541396f,  -0.00390066f,  -0.02993828f,   0.06128977f,  -0.01226860f,   0.10050993f,
      0.02031171f,  -0.06781336f,   0.04322751f,  -0.13113499f,   0.05652127f,   0.01892574f,  -0.00881318f,   0.03906666f,
     -0.04892692f,  -0.05420061f,   0.07136802f,  -0.01541755f,   0.01478873f,   0.05890155f,  -0.09755702f,   0.07731280f,
      0.09498189f,   0.03295716f,   0.14544818f,   0.00100631f,   0.10931059f,   0.01397361f,   0.04610403f,  -0.02439889f,
     -0.09085085f,  -0.02956478f,   0.06622470f,   0.10673459f,   0.11391091f,   0.12905332f,   0.04077896f,   0.08313976f,
     -0.02012242f,  -0.01340350f,  -0.04739385f,   0.06033381f,  -0.05627383f,   0.03391390f,   0.00468609f,   0.02337572f,
      0.02379899f,   0.01203549f,  -0.10287085f,  -0.01891197f,   0.03480515f,   0.02312121f,   0.03632599f,   0.06213927f,
     -0.00160598f,  -0.00398777f,  -0.00553335f,   0.00760714f,   0.11293608f,   0.01573237f,  -0.02320887f,   0.05550343f,
     -0.05611531f,   0.09270304f,   0.06402229f,  -0.08480368f,   0.05931788f,   0.00073197f,   0.03091395f,  -0.06262231f,
      0.05137189f,  -0.01663540f,  -0.02870807f,  -0.05455901f,  -0.06860648f,  -0.09208132f,   0.01365293f,   0.06525090f,
      0.02918557f,   0.06161506f,   0.04491381f,   0.06467497f,   0.05357768f,   0.03946568f,  -0.09502963f,  -0.03908950f,
     -0.07537339f,  -0.07920508f,  -0.02400374f,  -0.08664808f,   0.06696707f,  -0.04001604f,  -0.02218766f,  -0.01141280f,
     -0.06226155f,  -0.06286386f,  -0.06558182f,   0.06008765f,   0.05849567f,  -0.10084794f,   0.02199479f,   0.03039774f,
     -0.03258969f,   0.02950752f,   0.07832494f,   0.01353522f,   0.07549876f,   0.02798705f,  -0.01074852f,   0.01638170f,
      0.05743450f,   0.07818040f,  -0.07425789f,   0.04938655f,  -0.04141713f,   0.10109099f,  -0.00983116f,  -0.02735450f,
      0.02762443f,  -0.01128592f,   0.07772572f,  -0.04417703f,  -0.05657485f,  -0.02999787f,  -0.08529072f,   0.02797478f,
     -0.01397628f,  -0.04490227f,  -0.08163104f,   0.08815148f,  -0.00707204f,   0.07962063f,  -0.05786595f,   0.07551330f,
      0.04710152f,  -0.09224232f,  -0.02770049f,   0.00738829f,   0.03205113f,   0.01469959f,  -0.04928977f,  -0.05313367f,
      0.01029080f,   0.01822561f,  -0.05455179f,   0.07097683f,   0.06184440f,   0.02864092f,  -0.05935055f,   0.03994700f,
     -0.01416820f,  -0.04567672f,   0.03922417f,   0.07626403f,  -0.01775997f,  -0.02939202f,  -0.00611281f,  -0.03434711f,
      0.05768427f,   0.09474628f,  -0.03859935f,   0.01083351f,  -0.09197943f,   0.03696964f,   0.02155876f,   0.00135450f,
      0.09627040f,   0.01957690f,   0.03985966f,   0.01149017f,  -0.04735176f,  -0.06319861f,  -0.09513865f,  -0.09407400f,
     -0.02107612f,   0.00679274f,  -0.02033830f,  -0.07460677f,  -0.02938618f,  -0.04438384f,  -0.05505759f,   0.06446300f,
      0.00402458f,  -0.04706335f,  -0.00212696f,  -0.00268659f,  -0.10369489f,   0.06089984f,  -0.03003649f,  -0.06220359f,
      0.04593919f,   0.00931922f,  -0.08621480f,  -0.02658897f,  -0.04319641f,   0.03596604f,  -0.13213700f,   0.07470092f,
      0.02827176f,   0.00675465f,   0.04515410f,  -0.08500353f,  -0.00093904f,   0.06224516f,  -0.04790455f,   0.03017922f,
     -0.05995832f,   0.11335132f,   0.09517344f,   0.06135799f,  -0.03091913f,  -0.04394298f,   0.01492006f,  -0.03908962f,
     -0.06231181f,   0.06459320f,  -0.01770774f,  -0.07201133f,   0.00780653f,  -0.05849467f,  -0.03966129f,  -0.09092509f,
     -0.06235933f,  -0.05975870f,   0.11916448f,  -0.02772262f,   0.10935175f,   0.03762013f,  -0.00644351f,  -0.11428420f,
     -0.03237909f,  -0.14438459f,  -0.03718860f,  -0.09162052f,   0.08401883f,  -0.02893582f,   0.02606308f,   0.06479964f,
      0.06255005f,  -0.01988910f,  -0.01402641f,   0.04993071f,   0.02945395f,   0.04448293f,  -0.06322751f,   0.05853127f,
      0.05803874f,   0.06329585f,  -0.02404340f,   0.00216621f,  -0.01670039f,  -0.02127440f,  -0.02061263f,   0.06517408f,
      0.00076660f,   0.14832912f,   0.12936538f,   0.05163770f,   0.06090447f,   0.03042191f,  -0.01657316f,   0.05576343f,
      0.04910329f,  -0.04072878f,   0.06152628f,  -0.01595096f,   0.02877498f,  -0.10093636f,  -0.11754809f,  -0.02605056f,
      0.00652645f,  -0.00174208f,   0.10601396f,   0.07678255f,  -0.04460536f,  -0.08428295f,   0.06834009f,   0.00630063f,
      0.06426708f,   0.04645250f,   0.04467175f,   0.09098830f,  -0.03657659f,  -0.04763300f,  -0.06618725f,  -0.05559759f,
     -0.04669881f,   0.06459033f,  -0.03265052f,  -0.00324292f,   0.08790100f,  -0.05271759f,   0.08288118f,  -0.03587484f,
     -0.06880517f,  -0.04706658f,   0.06162240f,  -0.07687981f,   0.09847084f,  -0.08505437f,  -0.01966938f,   0.03524844f,
      0.10672291f,   0.00865687f,   0.03897415f,  -0.01181043f,   0.12040751f,   0.08648638f,  -0.00118097f,  -0.06020129f,
     -0.07489383f,   0.04118032f,   0.03389582f,   0.11409828f,   0.04812784f,  -0.06309611f,   0.05426629f,   0.03650335f,
      0.03598139f,  -0.06146737f,   0.12214590f,  -0.05474963f,   0.04171774f,   0.05271436f,   0.12060072f,  -0.01465347f,
     -0.00903637f,   0.09116020f,   0.08189204f,   0.00262539f,   0.02767137f,  -0.09227435f,   0.01930752f,  -0.06159899f,
     -0.11915378f,  -0.13105129f,  -0.05950829f,  -0.06071890f,   0.06287686f,  -0.09162454f,   0.02313522f,  -0.00003664f,
      0.01506770f,   0.05968449f,   0.00663072f,  -0.09936333f,  -0.08099619f,  -0.04693083f,  -0.00686180f,   0.00794273f,
     -0.09625083f,   0.05079952f,   0.09222718f,  -0.01795763f,  -0.00907429f,   0.05792529f,  -0.04564285f,  -0.09994923f,
     -0.09046806f,  -0.04638274f,   0.00099060f,   0.05444449f,  -0.02603347f,  -0.08045277f,  -0.10941724f,   0.04228242f,
     -0.04829410f,   0.04985981f,   0.04032221f,   0.03379905f,   0.03444620f,   0.05429882f,  -0.05591222f,  -0.01476433f,
     -0.02489334f,  -0.05557863f,  -0.05976554f,  -0.02793523f,   0.07585462f,  -0.01618909f,   0.08898074f,   0.04445220f,
      0.02659634f,  -0.02433693f,   0.10023523f,   0.04343827f,  -0.04852956f,   0.03946228f,  -0.09547603f,   0.05909547f,
     -0.01275833f,  -0.02757052f,  -0.05791979f,  -0.08919048f,  -0.07981808f,   0.12077594f,   0.05937736f,   0.12291440f,
      0.08828021f,   0.13147087f,   0.10338415f,   0.10595848f,   0.04519750f,  -0.04469147f,  -0.02806951f,   0.00074142f,
      0.06399652f,   0.00125478f,  -0.04337084f,  -0.03282559f,   0.01785401f,   0.01616857f,   0.05028437f,  -0.04176983f,
     -0.01086084f,   0.00383301f,  -0.04041119f,   0.01105944f,  -0.05314223f,  -0.01040799f,  -0.00196372f,   0.09074464f,
      0.09004342f,  -0.05253731f,  -0.09117863f,   0.03811176f,  -0.07500117f,  -0.02926387f,   0.03502501f,   0.02441603f,
      0.09094652f,  -0.01051247f,  -0.03535550f,  -0.03944461f,   0.05942877f,  -0.08598593f,   0.05512281f,   0.09676113f,
     -0.05618979f,  -0.07020668f,   0.04734397f,  -0.08256826f,   0.07981823f,   0.01647964f,   0.05342201f,  -0.06446849f,
      0.07368695f,  -0.02260113f,   0.05084031f,  -0.10823252f,  -0.06662608f,  -0.08533234f,   0.00097406f,   0.00780190f,
     -0.03834520f,   0.02114145f,   0.01930028f,   0.00297419f,  -0.07576172f,   0.06132152f,  -0.00274452f,   0.01132033f,
     -0.09644645f,  -0.03758906f,  -0.08499909f,  -0.09210923f,  -0.06278232f,  -0.16127495f,  -0.00701482f,   0.00787092f,
      0.04540720f,  -0.11113212f,  -0.04888719f,  -0.01576419f,   0.10403359f,   0.03854551f,   0.01802947f,   0.00102899f,
      0.06621678f,   0.04662461f,  -0.04665002f,   0.02834228f,  -0.11982129f,   0.04859647f,  -0.02923030f,   0.05058753f,
     -0.03365683f,  -0.06853889f,  -0.09594671f,   0.03394318f,  -0.00549499f,  -0.07108933f,  -0.01753358f,   0.07409176f,
      0.01073204f,  -0.00536885f,   0.04956909f,  -0.09042040f,  -0.08852925f,  -0.02031788f,   0.08114322f,   0.03717488f,
      0.03091874f,   0.09308217f,   0.06285948f,   0.01832814f,  -0.04428900f,   0.02433034f,   0.04015388f,  -0.02439198f,
      0.02913572f,  -0.02329469f,   0.08090286f,   0.08750281f,  -0.01934897f,  -0.07777181f,  -0.01780933f,   0.07899167f,
      0.05803604f,  -0.09249286f,  -0.00753421f,  -0.03152666f,   0.05687287f,   0.07294282f,  -0.06808146f,   0.02175280f,
      0.00125232f,   0.04076624f,   0.05324890f,  -0.03865644f,   0.00292747f,  -0.09052920f,   0.09802708f,  -0.02268077f,
      0.06297479f,  -0.00893285f,   0.03690533f,  -0.06761064f,  -0.05868113f,   0.00447749f,  -0.03410563f,  -0.08379507f,
      0.08856135f,   0.02012832f,   0.08237975f,   0.11912056f,   0.04828468f,  -0.05783359f,   0.15693137f,  -0.05289157f,
      0.01986394f,   0.10096316f,  -0.02301048f,   0.13516676f,  -0.02553764f,   0.05556541f,  -0.03437945f,  -0.09709749f,
     -0.02681306f,  -0.02028867f,  -0.09482787f,  -0.10048717f,   0.06970398f,   0.06164777f,  -0.10914406f,   0.05583886f,
     -0.06358564f,   0.04145715f,  -0.05661815f,  -0.09075040f,  -0.08258200f,   0.04064099f,  -0.01749651f,   0.05652501f,
     -0.08302658f,  -0.00436571f,   0.05706738f,  -0.03831313f,   0.08604915f,   0.01273121f,  -0.07480070f,  -0.09304310f,
     -0.04842646f,  -0.04844337f,   0.09169555f,   0.11091781f,   0.08123447f,   0.04523574f,  -0.07053792f,   0.04672288f,
     -0.02927141f,   0.00056307f,   0.05966042f,  -0.10591701f,   0.06453333f,  -0.05919109f,   0.02180910f,   0.03418735f,
     -0.02144607f,   0.01839508f,  -0.06516750f,   0.04733051f,  -0.06431887f,  -0.02472094f,   0.02549339f,   0.01286984f,
     -0.05333461f,  -0.06703099f,  -0.03907679f,   0.02118988f,   0.03410720f,  -0.02649218f,   0.05714138f,   0.07682845f,
      0.08144150f,  -0.03560657f,   0.01782679f,   0.03097948f,  -0.04903271f,   0.08378486f,   0.06270196f,  -0.03322580f,
     -0.00025506f,   0.13413106f,   0.04375046f,   0.03072310f,   0.11519668f,  -0.03132989f,  -0.02852247f,   0.01129707f,
      0.03420449f,   0.01468284f,   0.01221661f,   0.08812755f,  -0.00159048f,   0.03784240f,   0.00208671f,   0.03507777f,
      0.07568935f,  -0.07789542f,  -0.05197851f,   0.10054683f,   0.02340961f,  -0.04928028f,   0.00781163f,  -0.00757600f,
      0.05278806f,  -0.07698879f,  -0.10859283f,  -0.03704957f,  -0.07024432f,  -0.02188035f,   0.00088726f,  -0.08581632f,
     -0.10270268f,  -0.10884417f,   0.06572936f,   0.00365409f,  -0.06525891f,   0.06551801f,   0.07229726f,   0.04305671f,
     -0.05918808f,  -0.04693560f,   0.09619711f,  -0.11208877f,  -0.05698665f,  -0.07392113f,  -0.01760019f,   0.02512142f,
     -0.07277749f,   0.02930182f,  -0.00463630f,  -0.07578724f,  -0.08600029f,  -0.06742135f,  -0.00118603f,  -0.11872283f,
     -0.01121252f,  -0.00791058f,   0.04176642f,  -0.02901493f,   0.04778213f,  -0.03074556f,   0.06132872f,   0.01097777f,
     -0.02702456f,  -0.02643291f,   0.06076215f,  -0.06220899f,  -0.07300816f,   0.07324064f,   0.02994340f,   0.06963011f,
     -0.01323774f,  -0.06715278f,  -0.00972284f,   0.02652433f,  -0.04306815f,   0.01608776f,  -0.10298761f,  -0.03056155f,
     -0.10290515f,   0.03548587f,  -0.05305992f,  -0.01967015f,   0.02122572f,   0.00592746f,   0.03684385f,   0.05565852f,
      0.03088153f,   0.01154994f,  -0.01037381f,   0.01055487f,  -0.17113331f,  -0.03803004f,  -0.01823622f,   0.04509535f,
     -0.00355286f,  -0.04485130f,  -0.05694164f,   0.12758438f,  -0.03160521f,   0.08305425f,   0.04138150f,  -0.06994451f,
     -0.03908610f,   0.04941094f,  -0.04725603f,  -0.02211276f,  -0.05531256f,   0.08701440f,   0.00147608f,  -0.00797068f,
     -0.05838985f,  -0.02151567f,   0.12165609f,   0.03912839f,  -0.06670928f,  -0.02242767f,  -0.06447268f,  -0.02703570f,
     -0.02313687f,   0.06309645f,   0.08029322f,  -0.00196561f,   0.05546990f,  -0.07916222f,   0.02899998f,   0.06713076f,
     -0.05581629f,   0.06086020f,   0.02979292f,  -0.06214455f,  -0.05918771f,   0.08893868f,  -0.01951249f,   0.03526218f,
      0.07040014f,  -0.04538970f,   0.03967069f,   0.00621337f,   0.03339214f,  -0.07434454f,   0.08756599f,  -0.04916221f,
      0.10126367f,  -0.08575538f,  -0.08458798f,  -0.02626829f,   0.07807856f,   0.07459190f,  -0.03992765f,   0.00254239f,
     -0.07916501f,   0.04917261f,  -0.05807780f,   0.06041294f,   0.01901763f,   0.09620266f,   0.11166225f,  -0.04712484f,
     -0.14037539f,  -0.01551855f,   0.04644449f,  -0.05740105f,   0.02894728f,  -0.07151902f,  -0.02044675f,  -0.03102729f,
      0.05624459f,   0.00429935f,   0.05887435f,  -0.01292151f,   0.00900197f,   0.03911882f,  -0.02978151f,  -0.03537576f,
      0.04138536f,  -0.00050620f,   0.09304575f,   0.03802878f,   0.05469734f,  -0.03519308f,  -0.00761342f,   0.06171175f,
     -0.04831229f,   0.06653497f,   0.04119477f,   0.05753904f,   0.03357951f,  -0.12728940f,  -0.03962862f,   0.06990156f,
      0.00267924f,   0.00269506f,   0.06289194f,   0.08347998f,  -0.06113130f,  -0.03816915f,   0.00406474f,  -0.06008302f,
      0.10507202f,   0.07173041f,   0.00387159f,  -0.05405800f,   0.10368810f,  -0.10876974f,  -0.02358806f,  -0.05391152f,
     -0.08023251f,   0.02793349f,   0.12484012f,   0.04777177f,  -0.04396001f,  -0.03687320f,  -0.05837250f,  -0.03469136f,
      0.08854562f,   0.08035763f,  -0.04439694f,  -0.04384366f,   0.05071572f,   0.00946657f,   0.01113033f,  -0.09310889f,
     -0.00076291f,   0.02363997f,   0.00070489f,   0.03960228f,   0.07792206f,  -0.05833455f,  -0.12157137f,   0.06318548f,
      0.03173831f,  -0.06263337f,  -0.06076458f,   0.06354599f,   0.10302527f,  -0.05962274f,  -0.01580277f,  -0.01221511f,
     -0.06472375f,   0.03859341f,  -0.03974231f,   0.03236785f,   0.07246575f,   0.04409667f,   0.01779014f,  -0.09559716f,
     -0.00942903f,   0.03141294f,   0.05049331f,   0.00676025f,   0.02469266f,  -0.12514104f,  -0.09776351f,  -0.04391788f,
      0.07128477f,   0.06265271f,  -0.11070114f,  -0.06564867f,   0.09680653f,   0.04571468f,   0.00289737f,  -0.02215979f,
      0.00170378f,  -0.07919537f,  -0.09232084f,  -0.03111745f,   0.01739272f,  -0.00281365f,  -0.07253214f,   0.01282841f,
     -0.13573983f,   0.02601601f,   0.01813036f,  -0.07015216f,  -0.06658036f,   0.02576762f,   0.01638886f,   0.01566873f,
     -0.00764191f,  -0.02927950f,   0.00825338f,   0.06863333f,  -0.05464966f,  -0.05002980f,   0.00045193f,   0.01270370f,
      0.11703406f,  -0.02584923f,   0.08040097f,  -0.00782608f,   0.05477584f,  -0.04551366f,  -0.03076157f,   0.05968728f,
      0.10767600f,   0.01567381f,  -0.07419768f,   0.08207661f,  -0.00958342f,   0.00323816f,   0.05269449f,  -0.04232881f,
      0.01106565f,  -0.06339147f,   0.07127237f,   0.04564545f,  -0.05097335f,   0.02133035f,   0.02084842f,  -0.03658823f,
     -0.07775274f,  -0.02863691f,  -0.07672314f,  -0.03526616f,  -0.07746641f,   0.05010223f,  -0.08832042f,  -0.09991663f,
     -0.04527842f,   0.06219098f,   0.07954363f,   0.00362396f,  -0.08289196f,   0.02395504f,  -0.08190287f,  -0.06044470f,
      0.02733237f,  -0.08625688f,  -0.11713346f,  -0.09788272f,   0.03344106f,  -0.03435076f,   0.01644489f,   0.10399455f,
     -0.04020024f,  -0.00819206f,  -0.03160714f,   0.08378043f,   0.00530189f,   0.07178686f,  -0.06316209f,  -0.04434586f,
     -0.04756756f,   0.03988247f,   0.01356785f,   0.02758999f,   0.00406962f,   0.08874168f,  -0.00144475f,   0.01930022f,
     -0.06092142f,   0.01022733f,   0.00902199f,   0.10678201f,   0.01127378f,  -0.02287015f,   0.04270272f,   0.06020804f,
     -0.02634364f,   0.01320775f,  -0.13494267f,   0.03334524f,  -0.15621415f,   0.00145633f,  -0.04535936f,   0.02493059f,
     -0.10890104f,   0.00543655f,  -0.13315412f,  -0.10924408f,  -0.03731257f,  -0.06631177f,  -0.01476635f,  -0.01415502f,
      0.01530506f,  -0.11848630f,   0.00185635f,   0.02053611f,   0.10977454f,   0.01582368f,   0.01855775f,  -0.03055449f,
     -0.00555618f,  -0.09701692f,   0.08795814f,  -0.08019516f,  -0.10990446f,  -0.01861621f,   0.02562371f,  -0.00265371f,
      0.09624723f,  -0.08788658f,   0.03437266f,  -0.00774393f,  -0.06645393f,   0.01066781f,   0.00848575f,   0.09115871f,
      0.02129176f,   0.03598279f,  -0.02664684f,   0.08948784f,  -0.04495083f,   0.04256483f,  -0.08469615f,  -0.02676225f,
      0.01340566f,  -0.13478449f,  -0.04004255f,   0.09748477f,  -0.05490114f,   0.01594802f,   0.02186129f,   0.06000063f,
      0.08866710f,   0.08245311f,  -0.01780175f,   0.05963124f,   0.00439366f,  -0.05745119f,  -0.07655323f,   0.00268403f,
     -0.00498047f,  -0.00437436f,   0.02370699f,  -0.04291395f,  -0.05872881f,  -0.02167779f,   0.02831895f,   0.08458754f,
     -0.10239725f,   0.05093872f,   0.02088264f,   0.04156626f,   0.01883513f,   0.05958230f,  -0.02341468f,   0.07485573f,
     -0.02401453f,   0.02068648f,   0.03746880f,   0.01311205f,  -0.02622961f,  -0.05447114f,   0.01240172f,   0.02577379f,
      0.01436585f,  -0.01854911f,   0.05584984f,   0.06647998f,   0.05187783f,   0.08738987f,   0.01555907f,   0.01595823f,
     -0.01059868f,  -0.00109948f,  -0.10071081f,  -0.02748939f,  -0.04934968f,  -0.02987860f,  -0.00380776f,   0.02578384f,
      0.00420260f,  -0.02360073f,   0.06859155f,  -0.06917020f,   0.08871069f,  -0.05645030f,   0.00440852f,   0.04362984f,
      0.08503460f,  -0.00981309f,   0.07099421f,  -0.08692208f,   0.07905131f,   0.14000395f,  -0.05385825f,  -0.06840372f,
      0.01841199f,  -0.03722668f,  -0.00220364f,   0.05514360f,   0.01626741f,  -0.03446208f,   0.05764946f,   0.07232995f,
      0.06163280f,   0.00284645f,   0.05866894f,   0.07484996f,  -0.08630805f,   0.07223754f,  -0.00880928f,  -0.01251829f,
     -0.03302551f,  -0.08026765f,   0.07516946f,  -0.09836538f,  -0.05247831f,   0.09116407f,   0.03601178f,   0.01636613f,
     -0.01664192f,  -0.07971354f,  -0.05930571f,   0.05333353f,  -0.04178064f,  -0.14497606f,  -0.02317360f,   0.09009915f,
      0.04386675f,  -0.02383375f,  -0.07204752f,   0.02087998f,  -0.06692646f,  -0.05624505f,  -0.10144514f,  -0.00382173f,
     -0.06282913f,  -0.00980365f,   0.07509054f,   0.06106707f,  -0.00712907f,   0.04654733f,   0.09327570f,   0.00259477f,
      0.04676307f,   0.03075957f,  -0.03455881f,  -0.08109704f,  -0.05653675f,  -0.11798502f,   0.03555882f,  -0.03477180f,
     -0.02257832f,   0.10150214f,  -0.03134962f,   0.03339586f,  -0.03156674f,  -0.02987850f,   0.02220478f,   0.08021089f,
     -0.00381340f,  -0.10678302f,  -0.02429149f,   0.05767868f,   0.06106210f,   0.00466196f,   0.07308146f,  -0.09410053f,
      0.00562288f,   0.09220140f,  -0.04485435f,  -0.01296204f,   0.04864314f,  -0.09659678f,  -0.01943851f,  -0.09208248f,
     -0.00715194f,  -0.00349713f,   0.07649258f,  -0.06642116f,   0.02646407f,   0.08481759f,   0.09867677f,   0.01365414f,
     -0.02236997f,   0.00620509f,   0.02316848f,   0.00226241f,   0.07419345f,  -0.05071530f,   0.07825586f,   0.07468338f,
     -0.02130391f,   0.00223420f,  -0.02975362f,   0.05311202f,  -0.00754640f,  -0.05828055f,   0.09511808f,   0.03764599f,
     -0.00439533f,   0.02209986f,  -0.05876938f,  -0.03015619f,   0.04816062f,  -0.06880607f,  -0.06093589f,  -0.06342627f,
     -0.02297682f,   0.02187305f,   0.09614577f,  -0.00038511f,   0.11989955f,   0.10207292f,   0.00279685f,  -0.05915265f,
      0.06757621f,   0.04256785f,  -0.04870217f,  -0.00509174f,  -0.11172444f,  -0.02240794f,   0.08139613f,   0.07497925f,
      0.05401451f,   0.05277383f,   0.02477064f,   0.03075750f,  -0.00157229f,   0.04584460f,   0.11325613f,  -0.03766171f,
     -0.03868306f,  -0.01707427f,  -0.03613013f,  -0.07325064f,   0.04146110f,   0.11813802f,   0.00130327f,   0.00721118f,
      0.00146823f,   0.10849703f,  -0.07493275f,   0.08061814f,   0.10345791f,  -0.03890080f,  -0.00966326f,   0.04163681f,
     -0.06206427f,  -0.07229182f,   0.11540854f,  -0.09053546f,  -0.01934938f,  -0.04810275f,  -0.09480920f,  -0.06270678f,
     -0.00800502f,   0.02377971f,  -0.01756711f,   0.05529466f,   0.02656128f,   0.03843266f,  -0.05041128f,   0.03350161f,
      0.02450996f,  -0.01999434f,   0.05982738f,   0.08623746f,  -0.00540034f,   0.03256552f,   0.09534171f,   0.07243112f,
     -0.00841850f,   0.00151396f,   0.05805594f,   0.00927892f,  -0.05845288f,   0.02041926f,  -0.01540518f,  -0.04953774f,
      0.07931594f,  -0.10400525f,  -0.05781712f,  -0.01205763f,  -0.03966257f,   0.00610302f,  -0.11134245f,  -0.06537488f,
     -0.05211261f,  -0.05955072f,   0.02348285f,   0.02885517f,  -0.04996789f,   0.07697005f,   0.06766281f,   0.05404571f,
      0.05235295f,  -0.01387256f,   0.06888196f,   0.03371082f,   0.00439970f,   0.06480180f,  -0.03802402f,  -0.01530736f,
      0.04814809f,  -0.12628998f,   0.10254633f,  -0.00551220f,   0.09923393f,   0.01411371f,  -0.04161929f,  -0.03451095f,
     -0.05808305f,  -0.12098505f,  -0.03207977f,  -0.03936252f,   0.03534199f,   0.12415083f,   0.05468301f,   0.07562304f,
     -0.02034045f,  -0.04094810f,  -0.08583397f,  -0.10046530f,   0.09522343f,  -0.10783334f,   0.01310220f,   0.03892482f,
      0.08032987f,  -0.10570292f,   0.02711003f,  -0.08990519f,  -0.00911075f,  -0.02677047f,  -0.07963715f,  -0.07593267f,
     -0.05980751f,  -0.05598852f,  -0.05833797f,  -0.01988668f,  -0.12514435f,  -0.01408735f,  -0.10373397f,  -0.04909670f,
      0.00284652f,   0.00780055f,  -0.01215617f,  -0.01133702f,   0.06670588f,  -0.09770691f,  -0.04425783f,  -0.03599801f,
     -0.03016345f,   0.10789286f,   0.03465595f,   0.09268194f,  -0.02193068f,  -0.00439903f,  -0.02620718f,   0.06427173f,
     -0.00633820f,   0.05919934f,   0.00372480f,  -0.00951925f,  -0.05633149f,  -0.03515934f,   0.03859549f,  -0.01118934f,
     -0.04806890f,  -0.01312008f,   0.03070167f,   0.04192836f,  -0.02436350f,  -0.00979021f,   0.09640208f,  -0.05020012f,
     -0.03342520f,   0.00657675f,   0.08006716f,  -0.04589850f,  -0.06712270f,  -0.12533440f,  -0.02889887f,  -0.04673384f,
      0.04257629f,  -0.00164806f,  -0.09017973f,  -0.00016728f,   0.08787571f,   0.02954332f,   0.05479138f,  -0.09909478f,
     -0.02814383f,   0.03419958f,  -0.03941417f,   0.01063181f,  -0.01417061f,   0.02094468f,   0.09908732f,   0.03942763f,
     -0.02406853f,  -0.06212048f,  -0.03416245f,   0.03181703f,   0.10910720f,   0.02480863f,   0.05665481f,  -0.06428023f,
      0.03651542f,   0.09509170f,  -0.01378021f,  -0.05856571f,  -0.08805815f,  -0.02510166f,   0.04924616f,   0.03755956f,
      0.05757158f,   0.01863158f,  -0.01706247f,   0.00761707f,  -0.00807929f,  -0.00684673f,   0.05452973f,  -0.08376351f,
     -0.04950289f,  -0.09750871f,  -0.13859232f,  -0.16500776f,   0.03200858f,  -0.08413489f,   0.03397951f,   0.03280875f,
     -0.00598553f,  -0.10712799f,  -0.03388403f,  -0.01823262f,  -0.01301764f,  -0.00622500f,   0.01880744f,   0.03496448f,
     -0.02578486f,   0.10721801f,   0.08276970f,   0.07603822f,   0.01813934f,  -0.07036979f,   0.10742611f,  -0.00699974f,
     -0.04347939f,   0.01213154f,   0.03448729f,   0.02091899f,  -0.09322177f,  -0.04398508f,  -0.00099229f,  -0.03120474f,
     -0.06682821f,   0.04157423f,   0.03209536f,  -0.05680797f,  -0.00057267f,   0.11109793f,   0.04942354f,  -0.05799446f,
      0.00223422f,  -0.03625175f,   0.03276244f,   0.05675958f,  -0.03400730f,   0.00025001f,   0.06086480f,   0.03799460f,
     -0.07548940f,   0.03369324f,   0.02531124f,   0.02429390f,  -0.01848960f,   0.04155061f,  -0.04306154f,  -0.02541327f,
     -0.07601960f,   0.11074379f,  -0.01791783f,  -0.05598957f,   0.01739563f,   0.08309531f,   0.03255686f,   0.08023633f,
     -0.01892992f,   0.06633504f,   0.12212250f,  -0.07983832f,  -0.07346950f,  -0.10566096f,  -0.03972435f,  -0.02604899f,
     -0.09880296f,   0.01542497f,   0.05106015f,   0.05617218f,  -0.02649849f,  -0.10582550f,  -0.07523201f,  -0.05838827f,
      0.14363021f,   0.04994594f,  -0.07937384f,   0.09668597f,   0.09779184f,   0.00584419f,   0.09686681f,  -0.02758222f,
      0.04084151f,  -0.03333438f,   0.03325649f,   0.06836012f,   0.09058265f,   0.08981838f,  -0.07198054f,   0.07295252f,
     -0.03569235f,  -0.00294585f,  -0.03110840f,   0.01725614f,  -0.07513992f,  -0.08255392f,  -0.08278239f,  -0.00682645f,
     -0.01518768f,  -0.05485941f,   0.03202324f,   0.03021235f,  -0.03174218f,  -0.03664250f,   0.10274477f,  -0.07241917f,
      0.07923870f,  -0.02097118f,  -0.06947833f,  -0.04873243f,   0.00757742f,   0.00526573f,  -0.08556657f,   0.06821451f,
      0.02299464f,  -0.03671243f,  -0.03970046f,   0.08656670f,   0.02289792f,  -0.00314436f,   0.01490725f,  -0.08602723f,
      0.06085965f,  -0.05674597f,   0.06369928f,   0.07466234f,   0.11203401f,   0.04738164f,  -0.02840194f,   0.04222749f,
      0.09459242f,  -0.06255430f,   0.03042447f,  -0.07278410f,  -0.09383555f,   0.06579392f,  -0.07553663f,  -0.02953635f,
     -0.01471800f,   0.08240672f,   0.03602967f,  -0.05998015f,  -0.04773620f,  -0.02944911f,   0.04721767f,  -0.05755844f,
     -0.09364340f,  -0.10879794f,  -0.04404416f,   0.02627790f,  -0.08717076f,   0.00633119f,   0.02835737f,   0.03735290f,
     -0.10227078f,  -0.01430029f,   0.04473633f,  -0.05197955f,   0.07375421f,   0.01733164f,  -0.04650551f,   0.05647172f,
      0.04541600f,   0.02309800f,   0.00371552f,   0.05101460f,  -0.08010735f,   0.02493095f,  -0.06027252f,   0.05882392f,
     -0.05767180f,  -0.09892107f,  -0.10133446f,  -0.00688010f,   0.13458742f,  -0.00054768f,  -0.06570864f,   0.06209566f,
     -0.06414636f,   0.05134645f,   0.14674945f,  -0.00582266f,  -0.01559656f,  -0.06450253f,   0.04008465f,   0.03105744f,
      0.02014912f,  -0.01673346f,   0.08916405f,  -0.01119799f,   0.01702235f,   0.08324891f,  -0.00428089f,   0.10693212f,
      0.03256367f,   0.06148683f,   0.14985768f,   0.07583343f,   0.01929788f,   0.04678277f,  -0.00858122f,   0.08236188f,
      0.05072343f,   0.03565337f,  -0.01895290f,   0.01009549f,   0.07955149f,   0.02921672f,  -0.07481972f,   0.01164831f,
     -0.05650501f,  -0.05153555f,  -0.05175634f,   0.06205049f,  -0.08492072f,   0.03612321f,  -0.09042972f,   0.03001848f,
     -0.08108839f,   0.09165608f,   0.01907857f,   0.03046176f,  -0.05792465f,  -0.00836907f,   0.08441654f,   0.07531790f,
      0.04231330f,  -0.05301565f,  -0.07282124f,  -0.03308274f,   0.00238111f,  -0.10224269f,  -0.00501943f,   0.09620459f,
     -0.05236166f,   0.07112164f,   0.08972893f,   0.00220888f,   0.02085427f,  -0.00190412f,   0.08126701f,  -0.09087155f,
     -0.07919420f,  -0.12175224f,  -0.06375992f,  -0.13378821f,   0.02131307f,   0.06702799f,   0.07066644f,   0.04086671f,
     -0.06669004f,   0.03899075f,   0.08766420f,   0.11420099f,  -0.06958879f,  -0.01412749f,  -0.01988241f,  -0.00251844f,
     -0.02316405f,   0.00121573f,  -0.10235404f,   0.08164532f,   0.05304339f,   0.06625742f,  -0.05450940f,  -0.03364469f,
      0.12334204f,  -0.05012846f,   0.08015060f,   0.08469177f,  -0.02263776f,  -0.01314231f,  -0.01445697f,  -0.03103112f,
     -0.04433259f,   0.07803780f,  -0.04474618f,   0.08846496f,  -0.00385052f,  -0.09600134f,  -0.06974726f,  -0.04666612f,
      0.02944843f,  -0.03446634f,  -0.04091064f,  -0.01345249f,  -0.04548988f,  -0.05430327f,   0.06932848f,   0.06863651f,
     -0.05145506f,   0.01025543f,  -0.05429498f,   0.01251359f,  -0.09325636f,   0.04198359f,   0.05358905f,   0.06755389f,
     -0.03925075f,  -0.03760359f,   0.13692087f,  -0.08170903f,   0.10683561f,  -0.01473746f,  -0.01809268f,  -0.06651672f,
     -0.04481413f,   0.04743732f,   0.04056270f,   0.01592225f,   0.01888431f,   0.05205296f,  -0.11281622f,   0.03759324f,
     -0.09224414f,   0.04688627f,   0.01762432f,   0.04839970f,   0.09944351f,   0.05561833f,   0.11724073f,  -0.04166301f,
     -0.03639173f,  -0.05289740f,  -0.03143341f,  -0.07292572f,   0.06572729f,   0.01176142f,   0.08378853f,   0.08146852f,
     -0.09868196f,  -0.08784688f,   0.01281915f,  -0.00247120f,  -0.05842413f,   0.10926648f,  -0.02610406f,   0.11962152f,
     -0.00475971f,   0.10108583f,  -0.06868893f,   0.07117612f,   0.04128630f,   0.07126188f,  -0.06254143f,   0.04745928f,
      0.04815038f,  -0.06827860f,  -0.08579020f,  -0.08122756f,   0.00578204f,   0.05258704f,  -0.00025757f,  -0.06336373f,
     -0.05395821f,  -0.02274624f,   0.00770529f,  -0.00713007f,  -0.03959357f,   0.09994140f,  -0.01584820f,   0.05896155f,
      0.08782198f,   0.01911583f,  -0.08193780f,   0.07204691f,   0.04187401f,   0.01829352f,  -0.07790311f,  -0.01256987f,
     -0.00755904f,   0.05744914f,   0.09163480f,  -0.08853166f,   0.03549926f,   0.06831563f,   0.01883298f,   0.04735218f,
     -0.04830563f,   0.02899959f,  -0.09711494f,  -0.06693771f,  -0.03037236f,  -0.05289401f,   0.07068390f,  -0.10151567f,
      0.02212303f,  -0.03530025f,   0.04163372f,   0.00482819f,   0.09288788f,   0.06255005f,   0.05775655f,   0.08769371f,
     -0.05801576f,   0.01126014f,   0.12423369f,  -0.00638683f,   0.12494820f,  -0.00826361f,   0.11572921f,  -0.13348040f,
      0.05330363f,  -0.05514294f,  -0.00598805f,  -0.04117185f,  -0.06901003f,  -0.08716481f,   0.07154834f,   0.05499553f,
      0.06086872f,   0.06783812f,   0.04458774f,  -0.07246053f,  -0.04825858f,   0.10917066f,  -0.07443580f,  -0.02722225f,
      0.06499162f,  -0.05574064f,  -0.11101993f,   0.05156455f,   0.09251191f,   0.05832487f,  -0.03066550f,   0.06982328f,
     -0.01734636f,  -0.03630780f,  -0.12875468f,  -0.03240810f,   0.04045287f,   0.01667792f,   0.02908233f,   0.03107348f,
     -0.04021475f,   0.01344252f,  -0.01831863f,  -0.08577101f,   0.13738441f,   0.05694842f,  -0.00215357f,   0.05318551f,
     -0.05618263f,   0.06118070f,  -0.00874558f,   0.03731789f,  -0.06752323f,  -0.00843843f,  -0.12618281f,   0.01912200f,
     -0.02747886f,   0.06969408f,   0.02342136f,  -0.06041503f,   0.10222244f,   0.05312089f,  -0.07237232f,   0.05169394f,
     -0.03320273f,   0.00738523f,  -0.04682698f,  -0.05508909f,   0.05653236f,   0.10620946f,  -0.01729365f,   0.06407383f,
     -0.12670788f,   0.06803929f,   0.05135034f,   0.06492719f,  -0.04691496f,  -0.06195194f,  -0.07005770f,   0.04384270f,
      0.02168761f,  -0.12588766f,  -0.10607372f,  -0.00402944f,  -0.10308925f,   0.12725373f,   0.04117978f,  -0.02969467f,
      0.01324152f,  -0.04366892f,  -0.07667862f,   0.02130085f,   0.09081475f,  -0.01719378f,   0.01402988f,   0.01491169f,
     -0.01794497f,  -0.05610211f,   0.01611892f,  -0.06059160f,  -0.02040901f,   0.01154445f,  -0.04652495f,   0.09897270f,
      0.00707820f,   0.00205738f,   0.07726437f,   0.12661287f,  -0.09146663f,   0.04584473f,   0.09228718f,  -0.05842856f,
      0.02542201f,   0.07915791f,  -0.01283669f,   0.04340016f,   0.00496775f,  -0.00298315f,   0.05051951f,   0.09296937f,
      0.04254878f,   0.08395523f,   0.06874956f,  -0.08969793f,   0.02479786f,  -0.09202698f,   0.04179016f,   0.04782443f,
     -0.11798098f,   0.06927889f,   0.04606998f,  -0.05924301f,   0.06506000f,  -0.08993158f,   0.07768356f,  -0.01819311f,
     -0.00289350f,  -0.01686292f,  -0.02509478f,   0.05211569f,  -0.03541955f,  -0.00130652f,   0.06178788f,   0.03997768f,
     -0.12138060f,   0.01360598f,  -0.02794718f,  -0.09258651f,   0.03309684f,   0.06082983f,  -0.07986275f,   0.04838748f,
     -0.02541089f,   0.03841433f,  -0.04966453f,  -0.01542705f,  -0.00208548f,  -0.05269181f,   0.06466333f,   0.04213322f,
     -0.01517658f,   0.01559673f,  -0.05495422f,  -0.04286035f,  -0.00956831f,   0.04737300f,  -0.01144753f,   0.10649569f,
      0.03978312f,   0.03982427f,   0.03346870f,   0.08237930f,  -0.03311650f,   0.06519313f,  -0.03646850f,   0.04692666f,
      0.04833777f,  -0.02331696f,   0.03041099f,   0.00515385f,  -0.00991607f,  -0.10529173f,  -0.05090950f,   0.02820422f,
      0.03351571f,  -0.09166833f,   0.09598696f,   0.05252112f,  -0.09059664f,   0.02982173f,  -0.09080426f,  -0.07935564f,
     -0.04233266f,  -0.00326414f,  -0.10961207f,   0.01821473f,   0.08557922f,  -0.03930859f,  -0.02299087f,   0.07414327f,
     -0.01720280f,  -0.01552865f,  -0.10264313f,   0.07605294f,   0.00204217f,   0.13308750f,   0.08626202f,   0.00831630f,
      0.02132805f,   0.04702441f,   0.16782439f,   0.02536359f,  -0.06606902f,   0.05789633f,   0.08080698f,   0.03515769f,
      0.07282086f,   0.02906385f,  -0.04253720f,  -0.03896198f,   0.07348964f,   0.00791758f,   0.06052743f,   0.05134394f,
      0.09738894f,  -0.04535029f,  -0.01199424f,  -0.00831266f,   0.01185541f,   0.04222055f,   0.09491181f,   0.02113383f,
     -0.05360595f,  -0.07648376f,  -0.01320908f,  -0.08225143f,  -0.06188715f,  -0.02900936f,   0.01244744f,   0.10025991f,
     -0.00792120f,  -0.01401554f,  -0.09802399f,  -0.02181714f,   0.09212027f,  -0.03370212f,  -0.09175608f,  -0.08323448f,
     -0.13924390f,  -0.05650124f,  -0.10896441f,  -0.10486454f,  -0.02321897f,  -0.07312689f,   0.03304742f,  -0.08768956f,
      0.07893897f,  -0.05704115f,   0.00861896f,   0.00184784f,   0.02985047f,   0.00189541f,  -0.03686322f,  -0.07428484f,
      0.02598949f,  -0.06017633f,  -0.01697201f,  -0.03445821f,   0.06106189f,  -0.05086891f,  -0.04202950f,   0.03898596f,
      0.02642461f,  -0.06444026f,   0.11494912f,  -0.05110398f,   0.01722854f,  -0.08863600f,  -0.01750347f,  -0.07467489f,
     -0.06463066f,   0.10533652f,  -0.03050466f,  -0.10959428f,   0.03320866f,  -0.05655757f,   0.02654816f,  -0.08888341f,
      0.00681782f,  -0.06856262f,   0.06776756f,   0.00845280f,  -0.01909132f,   0.04841994f,   0.09896433f,   0.11673172f,
      0.05938755f,  -0.00515737f,   0.06938175f,   0.02369432f,   0.01419549f,  -0.10039396f,   0.06673090f,  -0.01216857f,
      0.03312792f,   0.04744899f,  -0.08220188f,  -0.00134853f,  -0.06721304f,  -0.08770848f,   0.03605711f,   0.04622111f,
      0.07060050f,   0.00227297f,  -0.02045553f,  -0.06895185f,  -0.02807725f,   0.00176131f,  -0.08509792f,  -0.00523012f,
     -0.03598396f,  -0.11241741f,  -0.05236004f,   0.06624617f,   0.07813008f,   0.12727457f,   0.05199086f,  -0.01003753f,
      0.07394180f,  -0.02798160f,  -0.06487456f,  -0.01777383f,   0.01253776f,   0.05493897f,  -0.02664348f,   0.07741560f,
      0.06665506f,  -0.07371122f,  -0.02711361f,  -0.01328862f,  -0.00324306f,   0.04853505f,   0.07107142f,  -0.04745185f,
     -0.00300590f,   0.09554093f,   0.08558249f,  -0.00338694f,   0.06807698f,   0.09853908f,  -0.02283417f,   0.08376291f,
     -0.00807637f,   0.04163504f,   0.07505805f,  -0.07872482f,  -0.03557058f,   0.04042967f,  -0.04397388f,  -0.06460477f,
      0.00690864f,  -0.04587002f,   0.04894900f,   0.08587449f,   0.09008569f,   0.01444284f,  -0.03891381f,   0.06712561f,
      0.01498481f,   0.02271005f,  -0.07722677f,   0.04603178f,  -0.10345808f,  -0.00204982f,  -0.08209834f,   0.03504192f,
      0.02929044f,   0.05109753f,   0.05957643f,   0.06745321f,  -0.00551030f,   0.06510076f,  -0.04589981f,  -0.03667457f,
     -0.11576597f,   0.00510263f,   0.02098884f,  -0.01047318f,   0.06144123f,   0.08453553f,   0.08033312f,   0.08864734f,
     -0.15365571f,  -0.05713024f,  -0.09979217f,  -0.07306143f,   0.02383927f,  -0.00914007f,   0.00816068f,   0.10129657f,
      0.07586003f,   0.06065520f,   0.03526582f,   0.05453238f,   0.05533344f,  -0.09674857f,  -0.07128286f,  -0.01168583f,
      0.03815544f,   0.05492735f,   0.02419114f,  -0.07228239f,   0.04135011f,  -0.05684567f,  -0.07802774f,   0.01368538f,
      0.02080655f,   0.04957465f,  -0.05446818f,  -0.06833177f,  -0.05803481f,  -0.00096374f,  -0.00500616f,   0.04245417f,
      0.05186071f,   0.08207090f,  -0.00936859f,   0.06233963f,   0.01886590f,   0.09073376f,   0.14057986f,   0.00989651f,
      0.00552421f,   0.01867829f,   0.01730186f,   0.05787876f,   0.04810826f,  -0.03433391f,  -0.01435853f,   0.05611522f,
      0.07476754f,   0.04689849f,   0.03370869f,   0.00040930f,   0.00392252f,  -0.01788887f,   0.00777799f,  -0.11768699f,
     -0.10271094f,  -0.05536884f,  -0.00970364f,  -0.01191627f,   0.09992220f,  -0.01237819f,   0.10529923f,   0.02598890f,
     -0.02824866f,  -0.05416652f,   0.08666497f,  -0.04570530f,   0.03694977f,   0.04876557f,   0.01124883f,  -0.02581152f,
     -0.00017604f,  -0.03154616f,  -0.13419013f,   0.00925138f,   0.13030268f,   0.09145954f,  -0.04697836f,  -0.01359841f,
      0.10102811f,  -0.01197107f,   0.09205993f,   0.05949727f,   0.08311544f,  -0.04820661f,   0.03207993f,  -0.09960308f,
     -0.02744045f,  -0.06532940f,   0.03633767f,  -0.04212027f,  -0.05651176f,  -0.00259833f,   0.05526900f,   0.08154091f,
      0.03411366f,   0.06774136f,   0.07951082f,  -0.01300104f,  -0.04340741f,   0.06034872f,  -0.04910416f,   0.01540878f,
     -0.06132232f,   0.01912096f,   0.00426215f,   0.05211728f,  -0.06663429f,  -0.06111622f,   0.08665682f,   0.08902968f,
      0.09911532f,  -0.03506322f,   0.05714726f,   0.05076984f,  -0.07133614f,  -0.07959342f,  -0.03696449f,  -0.06162724f,
     -0.03461616f,  -0.01729650f,  -0.01503629f,   0.02742894f,  -0.05185382f,  -0.10704579f,  -0.10600784f,   0.06835458f,
      0.07304505f,   0.01306197f,   0.04260972f,   0.00952430f,   0.00162333f,   0.13569944f,  -0.06140104f,  -0.05836817f,
      0.02017742f,   0.04124038f,   0.04009750f,   0.04473749f,  -0.11070222f,  -0.00212717f,  -0.05718748f,  -0.07015323f,
     -0.00414541f,  -0.05791574f,  -0.02584542f,  -0.07201902f,   0.09706292f,   0.07314662f,  -0.06718756f,   0.07059287f,
      0.07165391f,  -0.03839821f,  -0.00434050f,   0.04479549f,   0.02166858f,   0.02345696f,   0.05661033f,   0.03578992f,
      0.03079348f,  -0.02380776f,  -0.06353324f,   0.07997640f,  -0.04651134f,  -0.04142924f,   0.03433971f,  -0.10269345f,
     -0.01131313f,  -0.01894668f,  -0.03088310f,  -0.03704505f,   0.04878775f,   0.07278301f,   0.02788716f,   0.10012937f,
      0.03173826f,   0.03234267f,   0.03989261f,  -0.02936844f,   0.11290082f,  -0.04849269f,   0.04254952f,  -0.11538460f,
     -0.06697764f,   0.15259838f,  -0.04563237f,   0.02021965f,   0.10532199f,   0.07254203f,  -0.02968135f,  -0.00119057f,
     -0.03000998f,  -0.07970952f,   0.06292519f,  -0.06829375f,   0.12248404f,   0.07368816f,   0.00627922f,  -0.01975888f,
     -0.01382641f,   0.03205726f,   0.08937989f,  -0.03598589f,  -0.06209621f,  -0.07565432f,   0.04147273f,   0.05262351f,
      0.01748236f,   0.00782571f,  -0.02361824f,   0.05834370f,  -0.06187862f,  -0.12916976f,   0.08316290f,  -0.03042412f,
     -0.01269667f,  -0.10288314f,   0.02616948f,   0.07432649f,   0.05045772f,   0.05002316f,   0.00238650f,  -0.07215716f,
      0.00859705f,  -0.07208682f,   0.03584651f,   0.07307712f,  -0.08925983f,  -0.11082812f,  -0.08777058f,  -0.04564469f,
     -0.10583096f,  -0.01278084f,   0.03487908f,  -0.00223257f,   0.08129837f,  -0.03265204f,   0.10208619f,   0.09302304f,
      0.04939506f,  -0.02288240f,   0.06592090f,  -0.01616177f,   0.07227354f,  -0.00538428f,  -0.07232673f,   0.01532835f,
     -0.13815591f,  -0.00577149f,  -0.11688159f,   0.02902068f,  -0.03520922f,  -0.07964549f,  -0.05214994f,   0.00222612f,
      0.01866448f,   0.13629499f,   0.10253679f,  -0.01860857f,  -0.09405300f,  -0.01913961f,   0.03589274f,   0.01874881f,
      0.02435725f,  -0.05523448f,  -0.10206341f,   0.08608548f,  -0.06788946f,   0.07318529f,  -0.00534298f,  -0.03489203f,
      0.04170762f,   0.02502134f,   0.06914517f,  -0.03815901f,   0.04513583f,   0.04184064f,  -0.00642960f,  -0.10076007f,
      0.01813343f,   0.03353705f,   0.07253046f,  -0.06531025f,  -0.04915666f,  -0.00754520f,   0.02184738f,  -0.01732353f,
     -0.04097303f,  -0.03780286f,  -0.00831128f,   0.05836032f,  -0.08882177f,   0.04090674f,   0.01053655f,   0.08045810f,
      0.01078656f,   0.07760745f,  -0.08823320f,   0.05060716f,   0.04474331f,  -0.06679025f,   0.09824422f,   0.01715303f,
      0.02821823f,  -0.02064024f,  -0.01026185f,   0.06148460f,   0.02857169f,  -0.02855113f,  -0.03526700f,   0.01413886f,
      0.02263373f,  -0.09529255f,  -0.03804989f,  -0.01419442f,  -0.03771213f,  -0.05995807f,  -0.04472110f,   0.07293065f,
      0.05937600f,  -0.05274921f,   0.00995491f,  -0.00337361f,  -0.07757059f,   0.10010208f,  -0.06231397f,   0.00284646f,
      0.04195105f,  -0.06171951f,   0.05044875f,   0.14931935f,  -0.04592014f,   0.01377863f,  -0.00305145f,  -0.01495603f,
      0.05778427f,   0.06791779f,  -0.00690247f,  -0.00941946f,   0.03445614f,   0.03693759f,  -0.06192220f,  -0.05764526f,
      0.03992092f,   0.06222396f,  -0.06275344f,   0.00590614f,  -0.01277969f,  -0.03830748f,   0.01742195f,  -0.01132917f,
     -0.02890804f,  -0.00984204f,   0.05034856f,   0.02304484f,   0.03265187f,  -0.01410391f,  -0.09630592f,  -0.01080471f,
      0.02934751f,   0.01084655f,   0.03783745f,  -0.00389228f,   0.04728468f,  -0.06331832f,   0.01128091f,  -0.08460034f,
     -0.02520578f,   0.08175457f,  -0.07857883f,   0.12621231f,   0.05972805f,   0.08103449f,   0.04575215f,   0.02659024f,
     -0.00825809f,  -0.03411498f,  -0.07612064f,   0.07024292f,  -0.11340902f,   0.01311771f,  -0.05927638f,  -0.09040959f,
      0.06169156f,  -0.00630686f,  -0.04452578f,   0.06499672f,  -0.04510936f,   0.05862131f,   0.02875449f,  -0.05116950f,
      0.05640462f,   0.01400351f,   0.04631475f,  -0.01949089f,  -0.04449755f,   0.00659383f,  -0.00915279f,   0.05057433f,
     -0.15045317f,  -0.01293606f,  -0.08803836f,  -0.06279009f,  -0.02033512f,   0.11880504f,   0.07646829f,   0.10575125f,
      0.00433212f,   0.06240097f,   0.01178863f,  -0.07399943f,   0.03855251f,  -0.02553760f,   0.10946415f,  -0.06667153f,
     -0.09375720f,   0.00338467f,  -0.03215030f,   0.07888643f,  -0.02611969f,   0.03495956f,  -0.09116080f,  -0.11389001f,
     -0.10464345f,  -0.11634083f,  -0.08422212f,  -0.15069494f,  -0.10967915f,   0.01024660f,  -0.05860758f,   0.06125290f,
      0.09951679f,   0.10518281f,   0.02406116f,  -0.00013825f,   0.02487410f,   0.06785353f,  -0.03317620f,   0.04298425f,
};

static const float conv1_bias[32] = {
      0.07493952f,   0.01799621f,   0.07902922f,   0.06579347f,   0.01117084f,  -0.08444246f,   0.04097844f,   0.03765395f,
      0.07906408f,  -0.02326955f,   0.04679029f,  -0.01914683f,  -0.07202992f,  -0.06642096f,   0.05811021f,  -0.06017262f,
      0.01501632f,  -0.00855338f,   0.06395998f,  -0.07212003f,  -0.02922770f,   0.06781653f,  -0.00682039f,   0.02296064f,
     -0.01132867f,  -0.01850428f,   0.05039033f,  -0.10264165f,   0.05883685f,   0.09024935f,  -0.07219618f,  -0.00285915f,
};

static const float bn1_weight[32] = {
      0.99171430f,   0.96405518f,   0.98246622f,   1.00644779f,   0.97806221f,   0.98307604f,   1.02789104f,   0.94764835f,
      0.94516593f,   1.02929366f,   0.98558140f,   0.94653916f,   0.94837880f,   0.98312569f,   1.01430142f,   1.01678109f,
      0.98246682f,   0.93078572f,   1.02255225f,   1.00917399f,   1.01139367f,   0.95798540f,   0.98257500f,   0.97712457f,
      1.00451863f,   0.95247191f,   1.00398719f,   0.95368153f,   0.96277589f,   1.00184405f,   0.89417040f,   0.99246365f,
};

static const float bn1_bias[32] = {
      0.01442530f,  -0.03972845f,   0.03455823f,  -0.01168588f,  -0.03533965f,   0.03208913f,   0.00299784f,  -0.05131829f,
      0.05634775f,   0.00586227f,   0.02431264f,   0.06047286f,   0.05756874f,   0.02905469f,  -0.00079440f,  -0.00965295f,
      0.03085418f,   0.07559403f,   0.00170943f,  -0.00878157f,  -0.01210810f,  -0.03978169f,  -0.03720098f,  -0.02509505f,
     -0.01266405f,  -0.05960897f,  -0.01880493f,   0.05618559f,   0.05115581f,   0.01770856f,  -0.10398418f,  -0.01449389f,
};

static const float bn1_running_mean[32] = {
     -0.02183780f,  -0.35839570f,  -0.04446728f,  -0.27818185f,  -0.77889979f,  -0.16224590f,  -0.32684460f,  -1.09434497f,
      0.22446708f,  -0.01982231f,  -0.18740258f,   0.04826774f,  -0.70644313f,  -0.15519027f,  -0.02864656f,  -0.21505317f,
      0.11135831f,   0.19053596f,   0.46677634f,  -0.19897193f,   0.08585855f,  -0.49118000f,  -0.26330489f,  -0.03513576f,
     -0.11585861f,  -0.66612077f,  -0.83178055f,  -0.13266301f,  -0.09826887f,  -0.05846469f,  -0.45062175f,   0.10229041f,
};

static const float bn1_running_var[32] = {
      0.17790888f,   0.16811928f,   0.12494159f,   0.20130193f,   0.34581882f,   0.23970897f,   0.12875034f,   0.40777555f,
      0.21830133f,   0.20279010f,   0.36952388f,   0.17558281f,   0.22828194f,   0.15980977f,   0.16457637f,   0.29114071f,
      0.12917931f,   0.14597556f,   0.41187865f,   0.15907332f,   0.13031417f,   0.32142809f,   0.20884424f,   0.13817136f,
      0.15306251f,   0.26243517f,   0.33763787f,   0.15611622f,   0.17722888f,   0.14295137f,   0.14702703f,   0.21782418f,
};

static const float bn1_num_batches_tracked[1] = {
    11748.00000000f,
};

static const float depth1_weight[96] = {
      0.26626581f,   0.56773829f,  -0.33814105f,  -0.23442607f,   0.33569938f,   0.54927719f,  -0.05590520f,   0.23273079f,
     -0.01094227f,   0.56893432f,   0.43369582f,   0.32706544f,  -0.00524733f,   0.24367191f,  -0.50045544f,  -0.17132750f,
      0.53132141f,   0.07134473f,  -0.39651555f,  -0.49250397f,   0.18220431f,   0.32414740f,  -0.21349478f,   0.24023464f,
      0.50393331f,   0.32304242f,  -0.49557248f,  -0.10681957f,  -0.29565457f,  -0.21046568f,   0.52736783f,  -0.14063312f,
      0.13303943f,   0.46880376f,   0.08954944f,  -0.50563759f,  -0.26821482f,  -0.30404019f,   0.51542872f,  -0.07994414f,
     -0.52073783f,  -0.02910412f,   0.52286339f,   0.56900984f,   0.34654894f,  -0.57552344f,  -0.09852062f,  -0.32823521f,
     -0.28231221f,   0.37097952f,   0.38578790f,   0.46556970f,   0.42695692f,  -0.21094775f,   0.55940568f,  -0.36919639f,
     -0.06342275f,   0.00968471f,  -0.02978859f,   0.59352702f,  -0.29431495f,  -0.08803897f,  -0.22520429f,   0.31120822f,
      0.12099192f,   0.03073668f,  -0.33910447f,  -0.42748117f,  -0.04982829f,   0.27663991f,  -0.48060524f,  -0.56289583f,
     -0.37631425f,   0.55345702f,  -0.34888700f,   0.56024194f,  -0.34256396f,  -0.38908541f,  -0.47907731f,  -0.53401399f,
     -0.00487580f,   0.08522382f,   0.46103191f,   0.05390929f,  -0.22660942f,   0.39335260f,   0.19157109f,   0.15501344f,
      0.28431284f,   0.00148402f,   0.41009614f,  -0.25720119f,   0.25037661f,  -0.00610997f,  -0.14844194f,   0.27683148f,
};

static const float depth1_bias[32] = {
     -0.49200490f,   0.22734664f,   0.47557929f,  -0.05601195f,  -0.41781300f,  -0.49673006f,   0.25956842f,   0.03732486f,
     -0.55943906f,   0.50683439f,   0.10927714f,  -0.41283226f,   0.33875808f,   0.04173394f,  -0.42621675f,   0.12675293f,
     -0.26006946f,  -0.02863131f,  -0.31616881f,  -0.32311153f,  -0.14122488f,   0.46023279f,  -0.23399845f,  -0.23002689f,
      0.53926289f,   0.55153048f,   0.44656047f,  -0.56429642f,   0.48785838f,   0.27094728f,  -0.22898108f,   0.09899779f,
};

static const float bn_d1_weight[32] = {
      0.94866270f,   1.00236475f,   1.02734685f,   1.00890779f,   1.02269471f,   1.06557453f,   1.02708483f,   0.96710223f,
      1.00419509f,   1.00575554f,   0.97815776f,   0.96866280f,   1.07130885f,   1.01912057f,   0.97764903f,   1.04253423f,
      0.97610188f,   0.91948199f,   1.00440228f,   0.97021538f,   0.98820686f,   0.96183383f,   1.07203722f,   1.01179922f,
      0.99649215f,   1.07840979f,   0.98314941f,   1.00574517f,   0.96497905f,   1.04757607f,   0.97677267f,   0.95776987f,
};

static const float bn_d1_bias[32] = {
      0.01036034f,  -0.00706031f,   0.02798833f,   0.02266398f,   0.01956806f,   0.06631965f,   0.04264480f,  -0.03677380f,
      0.05012039f,  -0.00232097f,   0.00157672f,  -0.01075720f,   0.07820270f,  -0.00744924f,  -0.02420845f,   0.03118350f,
      0.02996583f,  -0.02875570f,   0.02790078f,  -0.02782279f,  -0.01731997f,  -0.03950665f,   0.09454557f,   0.06024959f,
     -0.10625574f,   0.00048261f,  -0.01102376f,   0.04597595f,  -0.01816258f,   0.07019407f,  -0.07195847f,  -0.03129647f,
};

static const float bn_d1_running_mean[32] = {
     -0.22295617f,   0.53284633f,   0.56833345f,   0.56353039f,  -0.49517834f,  -0.27725622f,  -0.12665306f,   0.16685633f,
     -0.39204520f,   0.19493093f,   0.34452266f,  -0.39613485f,   0.28879052f,  -0.31352431f,   0.32204953f,  -0.34272292f,
     -0.00168726f,   0.33473504f,  -0.26058391f,  -0.05028890f,  -0.45174828f,   0.65556860f,  -0.62207973f,  -0.61274302f,
      0.46609268f,   0.46194330f,  -0.03855075f,  -0.25327849f,   0.66654468f,   0.51058567f,  -0.08502182f,   0.15536804f,
};

static const float bn_d1_running_var[32] = {
      0.14298892f,   0.21803761f,   0.02014492f,   0.81406671f,   0.07337485f,   0.09950711f,   0.25167304f,   0.05384245f,
      0.12993936f,   0.12733404f,   0.15118775f,   0.12320869f,   0.08311136f,   0.14959842f,   0.48321921f,   0.36621347f,
      0.11411318f,   0.23441747f,   0.03789809f,   0.14791398f,   0.09667432f,   0.08238471f,   0.25229836f,   0.24408938f,
      0.11520768f,   0.17087808f,   0.46754548f,   0.10025899f,   0.06672995f,   0.06919827f,   0.08396697f,   0.01365380f,
};

static const float bn_d1_num_batches_tracked[1] = {
    11748.00000000f,
};

static const float point1_weight[1536] = {
     -0.06462889f,   0.05138735f,   0.16389558f,   0.07700329f,  -0.08292226f,   0.05469746f,  -0.11090929f,   0.08777853f,
      0.07951443f,  -0.05869252f,  -0.10362659f,  -0.11473094f,  -0.01708090f,   0.09560297f,   0.05780287f,   0.07741650f,
     -0.02993382f,  -0.01487878f,  -0.18856613f,  -0.08551322f,  -0.00262404f,   0.00361809f,  -0.11836129f,  -0.13126755f,
      0.04171037f,   0.10748504f,  -0.06363886f,  -0.02530999f,   0.00480018f,   0.12329742f,   0.08189565f,  -0.18090743f,
      0.09239388f,   0.07405963f,   0.05677665f,  -0.10743469f,   0.05427171f,  -0.18007225f,  -0.07608996f,  -0.05278758f,
      0.01033026f,   0.01197740f,  -0.18229944f,   0.07617804f,   0.07989814f,   0.17263097f,  -0.08473219f,   0.07631629f,
      0.13173726f,   0.08897085f,   0.10361817f,  -0.02060379f,  -0.09645945f,   0.08266152f,   0.05629420f,  -0.11436410f,
      0.15720598f,  -0.17118146f,   0.13416526f,   0.04227592f,   0.03300348f,   0.12396292f,  -0.14969213f,  -0.17113435f,
      0.02918423f,   0.03272476f,  -0.17394042f,  -0.13829616f,  -0.07234631f,   0.09757555f,  -0.12066086f,   0.06720438f,
     -0.07362526f,   0.16799423f,  -0.16418412f,   0.17074105f,  -0.15755279f,  -0.05075836f,   0.02274187f,  -0.19755957f,
      0.01793710f,   0.06607061f,   0.06713826f,   0.01524621f,  -0.06298271f,  -0.08422868f,   0.22580417f,  -0.02900129f,
      0.05519408f,   0.17377962f,   0.07622089f,   0.05831951f,  -0.05500178f,  -0.04139769f,   0.06300408f,   0.11130599f,
      0.05623557f,   0.18573782f,  -0.00652987f,   0.08124746f,   0.17356038f,   0.08803830f,  -0.04842467f,  -0.14386994f,
     -0.05818316f,  -0.10688166f,   0.15143108f,   0.00996972f,   0.11879408f,  -0.13484254f,  -0.09245074f,   0.12238748f,
      0.02649511f,   0.07528485f,  -0.15547000f,   0.10376125f,   0.07540304f,   0.10693799f,  -0.05327458f,   0.09350663f,
      0.13900697f,   0.04130306f,   0.05410301f,   0.17849270f,  -0.05729684f,  -0.11391000f,  -0.06664328f,  -0.12934990f,
     -0.02688015f,   0.10625518f,   0.00139697f,  -0.14450367f,   0.04787798f,  -0.08522329f,   0.10038505f,  -0.03642927f,
     -0.09103715f,   0.10308120f,  -0.18779460f,   0.12217479f,   0.09087870f,  -0.11242312f,  -0.12905516f,  -0.06226801f,
     -0.00881349f,  -0.01786233f,   0.02865394f,  -0.08344044f,   0.10292174f,   0.06361993f,  -0.05729539f,  -0.16706604f,
      0.25800884f,  -0.17021142f,   0.22640274f,  -0.14561866f,  -0.17129441f,  -0.10101635f,  -0.01828885f,  -0.00853248f,
     -0.08650285f,   0.08406634f,   0.11090973f,  -0.00783956f,   0.06301899f,   0.01991775f,  -0.07338107f,  -0.01892744f,
     -0.14233881f,  -0.09904668f,  -0.07831585f,  -0.11555810f,   0.02218352f,   0.08069291f,  -0.15969783f,   0.10190490f,
      0.06239785f,   0.18567261f,   0.11873451f,   0.06508946f,   0.13523909f,  -0.01165461f,  -0.15565610f,   0.02281714f,
      0.09375802f,  -0.20058748f,  -0.16952081f,  -0.08835590f,  -0.03151105f,  -0.19824356f,   0.11880703f,   0.01370027f,
      0.06184074f,  -0.05262964f,   0.02238684f,   0.10706124f,   0.12706041f,  -0.03650387f,   0.00737727f,   0.00727720f,
     -0.07220410f,  -0.05833416f,   0.06666915f,  -0.01607956f,  -0.05180319f,   0.14191401f,  -0.03822396f,  -0.05524451f,
     -0.03860512f,  -0.11044633f,   0.01863172f,  -0.07498571f,  -0.04737163f,  -0.08346782f,  -0.10278828f,   0.09413669f,
     -0.07096459f,  -0.08072404f,  -0.11872312f,   0.10516574f,  -0.00070514f,   0.05617996f,   0.02541352f,   0.13751060f,
      0.15158944f,   0.14053583f,  -0.10432541f,  -0.22322939f,  -0.01448257f,  -0.03671755f,  -0.13120973f,  -0.11735835f,
     -0.14991221f,  -0.09359696f,  -0.02672429f,   0.13230021f,  -0.17467523f,   0.08811752f,   0.01209248f,   0.09917358f,
      0.10298516f,  -0.00139607f,   0.14779858f,  -0.03041189f,  -0.08033794f,  -0.03216219f,  -0.00372050f,   0.13353430f,
     -0.04931559f,  -0.05845486f,  -0.11636899f,  -0.14737287f,   0.11299679f,  -0.01653922f,   0.05186221f,  -0.19456935f,
      0.06234967f,   0.02561517f,   0.07515162f,   0.10989808f,  -0.03627513f,   0.22182624f,   0.09076038f,   0.18313465f,
      0.11248633f,  -0.04244420f,  -0.01736393f,  -0.04137948f,  -0.04996875f,  -0.07040941f,   0.08649171f,  -0.11529662f,
      0.11872219f,  -0.14073749f,   0.00981973f,  -0.02236365f,  -0.07671059f,   0.00782228f,  -0.08860958f,  -0.29683033f,
     -0.02165856f,  -0.03402375f,  -0.16942629f,   0.07041087f,  -0.17268468f,  -0.00670028f,   0.08187686f,   0.01127988f,
      0.02616494f,   0.11405072f,   0.01908668f,  -0.08584552f,   0.12836531f,  -0.14356549f,   0.16046549f,  -0.04305870f,
     -0.01340667f,  -0.17561613f,   0.05373688f,  -0.10850302f,   0.08590798f,   0.18529640f,  -0.04230469f,  -0.05024864f,
     -0.07172652f,   0.13680579f,   0.04441074f,  -0.12931317f,  -0.03456656f,  -0.11565450f,  -0.15559292f,   0.18933126f,
      0.01455185f,  -0.02807258f,  -0.12163249f,  -0.08167209f,  -0.10480607f,   0.03175971f,   0.11543920f,   0.08213095f,
     -0.02270862f,  -0.06458176f,   0.16599821f,  -0.03432605f,  -0.02829764f,   0.23885551f,   0.09051374f,  -0.01632080f,
      0.09112932f,   0.17720251f,   0.05928273f,  -0.08129310f,   0.01993505f,   0.07568965f,   0.00594676f,  -0.20017456f,
     -0.11400171f,   0.03079418f,  -0.04220803f,   0.10198100f,   0.02735001f,  -0.05676259f,   0.07133943f,  -0.13764988f,
     -0.14912601f,  -0.10471834f,   0.07145305f,   0.02433381f,   0.07040343f,  -0.04980098f,   0.04967528f,  -0.11452804f,
     -0.13102636f,  -0.12350111f,   0.10383362f,  -0.03316794f,   0.11464787f,   0.21991378f,  -0.10086194f,  -0.11581323f,
     -0.07828470f,   0.10970505f,  -0.06762555f,  -0.11518055f,  -0.09267467f,   0.04509101f,  -0.09381463f,  -0.03684663f,
     -0.07533076f,   0.08767186f,   0.05964099f,   0.05095827f,  -0.04167775f,   0.07839531f,   0.06058246f,  -0.01030052f,
      0.03797005f,   0.10951120f,   0.00280951f,   0.01085145f,  -0.06296542f,   0.00271100f,   0.11693294f,  -0.12640980f,
      0.10161740f,  -0.13162325f,  -0.17404363f,   0.08574957f,   0.04017413f,   0.08642577f,  -0.00728936f,   0.14857027f,
     -0.15146570f,  -0.09610343f,   0.02170386f,  -0.02005455f,  -0.17379819f,  -0.08240181f,   0.06736993f,  -0.04658512f,
      0.15219557f,  -0.16758302f,   0.01394091f,  -0.13839845f,  -0.05212462f,  -0.07022446f,   0.12741970f,  -0.16786541f,
      0.16760691f,   0.14877583f,   0.10185745f,  -0.03671661f,  -0.17738211f,  -0.17048436f,  -0.04469768f,  -0.06504226f,
     -0.03087537f,  -0.15288109f,  -0.13399330f,  -0.04860479f,   0.17457616f,  -0.14043495f,  -0.05322713f,   0.08774906f,
      0.01596237f,  -0.11854865f,   0.10656276f,   0.01321424f,  -0.02973210f,   0.19284652f,  -0.09772751f,   0.05939797f,
     -0.03689154f,   0.11577190f,  -0.15413009f,  -0.19365080f,   0.13713156f,   0.16674197f,  -0.21203360f,   0.10032341f,
     -0.12403578f,   0.04560990f,   0.06282511f,  -0.06983559f,   0.13873838f,   0.12291741f,   0.04156606f,  -0.16063105f,
     -0.05236273f,   0.15269856f,  -0.13338012f,  -0.13322374f,   0.13582835f,  -0.12007780f,   0.09752559f,   0.00867580f,
     -0.14961684f,  -0.19663729f,   0.06284217f,   0.13649392f,  -0.10945699f,   0.02481062f,   0.02078850f,   0.12854293f,
     -0.02645145f,   0.06866182f,   0.01504634f,  -0.13544554f,   0.12336350f,   0.11596029f,  -0.16696429f,   0.04556139f,
     -0.02500213f,  -0.22303759f,  -0.06871557f,   0.08456867f,   0.18199581f,  -0.13397349f,  -0.10731700f,   0.02794283f,
     -0.24227354f,  -0.13106635f,  -0.04345665f,  -0.14298555f,   0.22609113f,   0.10780601f,   0.03071218f,  -0.03080194f,
      0.09535602f,  -0.09088384f,  -0.10021300f,   0.03935286f,   0.01205997f,  -0.06843062f,   0.08012269f,  -0.14896293f,
      0.06406777f,  -0.04735285f,   0.09417530f,   0.14902169f,  -0.06088893f,   0.13148947f,   0.17179443f,  -0.03004432f,
      0.03919203f,   0.01859606f,   0.03131893f,  -0.16321868f,  -0.02568570f,   0.02939447f,  -0.05348847f,  -0.09074674f,
      0.12434303f,   0.13220690f,  -0.06735191f,  -0.06275613f,   0.03491033f,  -0.07970462f,  -0.04999737f,  -0.09529219f,
     -0.24706306f,  -0.15602952f,  -0.08241463f,   0.01826767f,  -0.10210818f,   0.14989541f,  -0.14899728f,  -0.00540985f,
      0.02004797f,   0.02549941f,   0.10593473f,  -0.07317786f,   0.10611684f,   0.01287913f,   0.11967058f,  -0.11723324f,
     -0.05477373f,  -0.10465276f,  -0.06195312f,  -0.14072175f,   0.14472778f,  -0.21463102f,   0.09918296f,  -0.20615658f,
      0.12598871f,   0.02691726f,  -0.18073487f,   0.09549687f,   0.05595101f,   0.03636663f,   0.07838498f,  -0.18501176f,
     -0.12363499f,   0.11508525f,   0.00835608f,  -0.01891334f,   0.02063706f,   0.16357450f,  -0.06699108f,  -0.15596759f,
     -0.14787561f,  -0.05361767f,   0.09747971f,   0.12548585f,  -0.13473633f,  -0.15581289f,  -0.22467303f,  -0.01714161f,
      0.07451527f,  -0.16823523f,  -0.17456511f,   0.11412236f,   0.07359736f,   0.06564769f,   0.00798529f,  -0.08736616f,
      0.01662647f,   0.23671480f,  -0.01691336f,   0.05833095f,   0.16151956f,  -0.15819004f,  -0.20424145f,   0.03364015f,
      0.09261106f,  -0.02599638f,   0.12390126f,   0.10893758f,   0.01308216f,  -0.03964614f,  -0.02979741f,  -0.08567896f,
      0.01673812f,   0.00480430f,  -0.05030798f,   0.03601779f,   0.06568519f,   0.01783704f,  -0.08811120f,   0.01089283f,
      0.03292650f,  -0.01923624f,   0.04881644f,   0.03950609f,  -0.12630101f,   0.09855448f,   0.13175394f,   0.09525035f,
      0.05510911f,   0.11472365f,   0.02575141f,  -0.18363276f,  -0.10691799f,   0.15693460f,   0.09784238f,  -0.05895479f,
     -0.01269821f,  -0.09791057f,  -0.08573290f,   0.01914763f,   0.10005915f,   0.00201958f,  -0.04163781f,   0.05050188f,
     -0.09752164f,  -0.00053278f,  -0.10475062f,  -0.02708386f,   0.07506646f,  -0.12003659f,  -0.04294495f,  -0.08878604f,
      0.08847004f,  -0.15531743f,   0.06507574f,   0.06707934f,   0.07659307f,   0.19468325f,   0.04147267f,  -0.03656104f,
     -0.10066016f,   0.06687606f,   0.03887121f,   0.12699158f,   0.06837066f,  -0.10448991f,  -0.13728654f,   0.06636800f,
      0.10172281f,  -0.12821695f,   0.16915874f,  -0.02882470f,  -0.06873904f,   0.11468245f,   0.17129943f,  -0.03294934f,
     -0.05499158f,  -0.01494876f,   0.11932734f,   0.05706744f,  -0.13300329f,   0.05353610f,   0.02225879f,  -0.05649088f,
     -0.14284573f,   0.01980442f,   0.18044549f,   0.17029551f,   0.09258756f,   0.14304933f,   0.08324015f,  -0.00308904f,
     -0.22573380f,   0.05666964f,  -0.01449310f,   0.14041792f,  -0.12448940f,   0.10738617f,  -0.00702351f,  -0.07947569f,
      0.06256064f,  -0.07420578f,  -0.10264934f,  -0.09935871f,  -0.00438508f,   0.06012626f,  -0.10197430f,   0.02588580f,
      0.06715964f,  -0.05329175f,  -0.09251902f,  -0.08722387f,  -0.05872007f,   0.17467374f,   0.06954716f,   0.02088023f,
      0.07255617f,  -0.11133820f,   0.06444761f,  -0.04855605f,   0.03929559f,  -0.02745940f,  -0.12384497f,  -0.13890333f,
     -0.04553198f,   0.11396039f,   0.16139482f,   0.05914830f,   0.09890418f,   0.12438224f,  -0.13253243f,  -0.05987370f,
      0.18045568f,  -0.04543007f,  -0.05351568f,   0.00701690f,  -0.03700994f,   0.06763879f,  -0.06784985f,   0.12664455f,
      0.06221038f,  -0.08312518f,  -0.00582892f,  -0.00826469f,  -0.19098189f,  -0.02476219f,  -0.09398778f,   0.03226137f,
     -0.00198649f,   0.03185095f,  -0.02284955f,  -0.04938275f,   0.06274074f,  -0.02862561f,   0.12824591f,  -0.01098883f,
      0.04552829f,  -0.03488012f,  -0.11327932f,   0.09817881f,  -0.04531864f,  -0.18012835f,  -0.14140411f,   0.05849623f,
      0.05936918f,   0.11192036f,  -0.05314493f,   0.08497296f,  -0.22479749f,   0.09862673f,   0.11601817f,   0.15826771f,
     -0.05935936f,   0.03420187f,  -0.15639032f,  -0.01904618f,   0.03784081f,  -0.15519361f,   0.15589513f,  -0.00897190f,
     -0.04076757f,   0.21647346f,  -0.05701758f,   0.13242206f,  -0.00285508f,   0.07121796f,  -0.07749147f,  -0.10000261f,
     -0.09660599f,  -0.11718431f,  -0.08358159f,  -0.05337682f,   0.03677570f,   0.00826329f,   0.21622820f,   0.11820515f,
      0.02692170f,  -0.11131451f,  -0.11186971f,  -0.02365709f,  -0.05919304f,   0.02995311f,   0.03805389f,  -0.10496374f,
     -0.05272667f,  -0.06506506f,  -0.10706006f,  -0.07631055f,   0.14416437f,   0.07871600f,  -0.13977297f,   0.13856223f,
     -0.11420002f,   0.03064996f,  -0.17872852f,  -0.15618028f,   0.17571497f,  -0.16641352f,   0.01390835f,   0.08558310f,
      0.15019460f,   0.06895218f,  -0.05655491f,  -0.12329453f,   0.00035679f,   0.03976086f,   0.02737007f,   0.06156405f,
      0.21358764f,   0.07370321f,   0.14121255f,   0.08511475f,  -0.11750986f,   0.02307616f,  -0.07421396f,  -0.07330530f,
      0.06762493f,  -0.09956618f,   0.05086051f,   0.14887868f,   0.19802023f,   0.15930076f,   0.06402501f,   0.19694974f,
     -0.06766027f,  -0.09046584f,  -0.10046725f,   0.14823891f,   0.18373449f,  -0.03611927f,  -0.12406649f,   0.01638698f,
      0.00932630f,   0.08478152f,  -0.01122325f,   0.07385503f,   0.01107083f,  -0.12575415f,  -0.01317875f,   0.11271805f,
      0.02547542f,  -0.17509016f,  -0.12830263f,  -0.11016524f,   0.06776621f,   0.11060677f,  -0.12408563f,   0.00619272f,
      0.03736342f,   0.10552191f,  -0.02609579f,   0.05513336f,   0.01427671f,  -0.03904225f,   0.02468460f,  -0.12682229f,
      0.16309537f,   0.20198655f,   0.02575526f,  -0.09499676f,   0.11796945f,  -0.08020471f,  -0.02555724f,  -0.08782662f,
      0.10339411f,  -0.11324249f,   0.13115844f,   0.09068338f,   0.15803622f,   0.12441391f,   0.18589891f,  -0.03486233f,
     -0.12852743f,   0.06693535f,   0.10685445f,  -0.10585915f,  -0.10826297f,  -0.01817358f,  -0.07670984f,   0.01746822f,
      0.06159602f,   0.09944995f,  -0.16761141f,   0.13280934f,  -0.18403192f,  -0.00382993f,  -0.00176630f,   0.12824771f,
      0.11351545f,  -0.11469375f,  -0.17909458f,  -0.10307131f,  -0.08171201f,   0.08995197f,  -0.07878102f,  -0.02240073f,
      0.09538826f,   0.10514552f,   0.00879303f,   0.10169258f,   0.03872258f,  -0.21846603f,  -0.13904266f,  -0.07900091f,
     -0.11326271f,   0.06902131f,   0.00173167f,  -0.08638161f,   0.17482968f,  -0.01677652f,  -0.03169691f,   0.00890804f,
     -0.00135872f,  -0.12311463f,  -0.11126179f,  -0.15797600f,   0.11428321f,  -0.08495850f,  -0.08059744f,  -0.15261421f,
      0.04276417f,   0.02020987f,  -0.04658624f,   0.15420063f,   0.15592743f,   0.16782132f,  -0.08158983f,  -0.08171047f,
     -0.10585658f,  -0.01641754f,   0.02666891f,   0.11126318f,  -0.17613555f,  -0.13854714f,  -0.08037947f,  -0.04682914f,
     -0.07423045f,  -0.05589626f,   0.07343589f,  -0.15436648f,   0.03609471f,  -0.12987140f,   0.03032408f,  -0.07616706f,
     -0.11742309f,  -0.03969577f,  -0.05549794f,  -0.01228670f,  -0.11767373f,   0.13027357f,   0.09065457f,   0.12165911f,
      0.07839144f,  -0.01910871f,  -0.11429529f,   0.07690458f,   0.06633382f,   0.12362137f,  -0.04157467f,   0.07031424f,
      0.13047478f,   0.09076586f,  -0.15834163f,  -0.14002553f,   0.14031760f,   0.01140500f,   0.07906243f,   0.14014675f,
      0.07053434f,   0.18258093f,  -0.13305780f,  -0.11051188f,   0.00203302f,   0.16349980f,   0.01428965f,   0.05919900f,
     -0.10789397f,   0.09694628f,  -0.13367537f,   0.06462853f,  -0.13155566f,   0.16541965f,  -0.03823538f,   0.06653179f,
     -0.00595592f,   0.16338153f,  -0.10711744f,   0.14851089f,  -0.06990531f,   0.07728108f,   0.03999844f,   0.03283012f,
      0.06082354f,   0.07584907f,   0.05988725f,  -0.09790092f,   0.13748227f,  -0.22071987f,  -0.06414599f,  -0.10283836f,
     -0.04225272f,   0.07457162f,   0.02163984f,  -0.14594573f,   0.02869687f,  -0.02362651f,   0.15234174f,   0.05452372f,
     -0.04729681f,   0.09629399f,  -0.09506333f,  -0.03102014f,   0.14801382f,  -0.17550580f,   0.06859707f,  -0.11878653f,
     -0.08400889f,   0.09378951f,  -0.00559630f,   0.15779711f,  -0.16001552f,  -0.08446994f,  -0.03832803f,   0.11547402f,
     -0.07266493f,   0.08010235f,  -0.06614329f,   0.08540864f,  -0.04454329f,   0.03347545f,   0.01719648f,  -0.00781193f,
     -0.15999880f,  -0.05021606f,  -0.13396725f,  -0.13245113f,   0.04403557f,   0.12883700f,   0.14868434f,   0.18143065f,
      0.00905623f,   0.09534350f,  -0.15639202f,   0.07429919f,  -0.19094545f,  -0.09680883f,   0.18985836f,   0.09812453f,
     -0.05436601f,  -0.08584534f,   0.15923594f,   0.02273866f,   0.02608363f,   0.02217721f,  -0.03777002f,  -0.08761986f,
      0.02614765f,  -0.10195247f,   0.07843326f,   0.24218348f,   0.09558053f,   0.09588418f,   0.09621706f,   0.19589436f,
      0.06135033f,   0.11538299f,  -0.04331359f,  -0.03584768f,   0.01176113f,  -0.07290193f,   0.09438191f,  -0.08187965f,
     -0.15522155f,   0.05853644f,   0.09167118f,   0.08025358f,   0.13780998f,   0.01457912f,   0.02765037f,   0.00418123f,
      0.03724730f,  -0.05468008f,  -0.15157048f,   0.10026229f,  -0.00873601f,   0.04777764f,  -0.09806719f,   0.10122255f,
     -0.13123332f,  -0.14189148f,   0.09884764f,  -0.05138616f,   0.13457163f,  -0.13384405f,   0.07183016f,  -0.10599067f,
     -0.02111823f,   0.06264221f,  -0.15697218f,  -0.09538272f,  -0.11440078f,  -0.03916615f,  -0.03649043f,   0.16383281f,
     -0.02613157f,   0.03667863f,  -0.10362307f,   0.03448261f,   0.00329476f,   0.06959710f,   0.14873868f,   0.08516078f,
      0.12678704f,  -0.07446899f,   0.07280126f,   0.11566389f,  -0.09961707f,  -0.06264411f,  -0.05555696f,  -0.13629891f,
     -0.06713316f,  -0.06374972f,  -0.08429383f,   0.14898659f,  -0.10340197f,   0.15717411f,  -0.11652925f,   0.10499144f,
      0.12380178f,   0.08841418f,  -0.00779209f,  -0.15611331f,   0.04901187f,  -0.03231710f,  -0.11799904f,  -0.14369878f,
      0.08466858f,  -0.13524707f,   0.12172129f,   0.08546004f,  -0.02535005f,   0.07831072f,  -0.10923806f,  -0.00950525f,
      0.09766487f,  -0.06975883f,   0.02410866f,  -0.02260529f,   0.12550052f,   0.02522532f,   0.14221272f,   0.01371845f,
     -0.05151036f,  -0.07817625f,  -0.06291769f,  -0.17486773f,   0.10681266f,  -0.17119601f,   0.17111358f,  -0.10369666f,
     -0.00744842f,   0.05887575f,   0.09156248f,   0.10688507f,   0.13451037f,   0.04718729f,   0.12704390f,   0.11417922f,
      0.18555081f,   0.09184501f,   0.10881499f,   0.13452372f,   0.00069157f,  -0.02016313f,   0.13790244f,   0.10925382f,
      0.16044168f,  -0.00888187f,  -0.00399928f,  -0.01719016f,   0.13332994f,  -0.12783068f,  -0.03999322f,  -0.03326492f,
      0.00992749f,  -0.09477006f,  -0.04931435f,   0.01206551f,   0.02807900f,  -0.14392930f,   0.12123509f,  -0.07398287f,
     -0.01093554f,  -0.16127793f,  -0.06088926f,   0.03692611f,   0.04876186f,   0.17458327f,  -0.16324635f,   0.16466367f,
     -0.10481551f,  -0.10045316f,  -0.10906781f,  -0.15605442f,  -0.01246960f,  -0.10333276f,  -0.18332866f,  -0.04669742f,
      0.06622765f,  -0.03727663f,   0.05858720f,  -0.01480786f,   0.02750087f,   0.09728763f,   0.05892773f,   0.13565654f,
     -0.17022300f,  -0.13073431f,   0.18061593f,   0.10051455f,   0.12942414f,  -0.13211457f,  -0.02591367f,  -0.05051344f,
      0.14053905f,  -0.10833298f,   0.04257916f,  -0.16005294f,  -0.17767210f,  -0.05665089f,   0.08556169f,   0.03881118f,
     -0.22846155f,   0.10897111f,  -0.11246157f,  -0.02097566f,   0.03419491f,  -0.02839765f,  -0.13002196f,  -0.04682625f,
      0.01489001f,  -0.12285186f,  -0.00661105f,   0.08635051f,  -0.11389088f,  -0.07433910f,  -0.13870335f,   0.17678328f,
      0.13531208f,   0.15408131f,   0.00072785f,  -0.03503292f,   0.07993977f,   0.16046977f,   0.21950410f,  -0.03593128f,
     -0.09168854f,   0.16490610f,  -0.01189740f,   0.15753114f,  -0.05241555f,  -0.03847887f,   0.07910215f,   0.01844718f,
      0.05814764f,   0.03135708f,   0.08639743f,   0.00313317f,   0.00447618f,  -0.07263865f,  -0.09580562f,  -0.05586978f,
     -0.14907712f,   0.15697560f,  -0.02125425f,  -0.14368851f,   0.09646532f,  -0.16883728f,  -0.01926268f,   0.08348131f,
     -0.08008245f,  -0.11582688f,  -0.08659913f,  -0.13293970f,   0.10321259f,  -0.15176271f,   0.14283618f,  -0.08533153f,
     -0.08014341f,  -0.15376954f,  -0.05093673f,  -0.01356176f,   0.04116652f,   0.09979209f,  -0.12888868f,   0.06994419f,
     -0.06462483f,  -0.06059537f,   0.01885583f,  -0.12285665f,  -0.04746963f,  -0.01559609f,   0.19991656f,   0.15707265f,
     -0.13751210f,  -0.01369774f,  -0.09373684f,   0.01672670f,   0.03684814f,  -0.03688736f,   0.21827869f,   0.00954388f,
      0.08128837f,   0.14845841f,   0.07959471f,   0.02823872f,  -0.15196149f,  -0.05732841f,  -0.09897915f,  -0.15918869f,
      0.10877051f,   0.13298213f,   0.04275463f,   0.04964052f,   0.04804505f,   0.14479889f,  -0.09111985f,   0.11720498f,
      0.05055205f,  -0.14412154f,   0.12334704f,  -0.02244942f,   0.03019029f,   0.19928087f,  -0.10137971f,  -0.11382846f,
      0.01888625f,  -0.05045824f,   0.15273024f,   0.05851300f,   0.07916100f,   0.02297193f,   0.19835818f,   0.10487437f,
      0.14973709f,  -0.18972111f,  -0.11000389f,  -0.09594086f,   0.00348780f,   0.02890229f,  -0.05663992f,  -0.17233999f,
     -0.06875622f,  -0.12119530f,  -0.03813386f,  -0.03845053f,   0.05285860f,  -0.00485172f,   0.07879669f,   0.00551416f,
     -0.06764269f,   0.14781904f,   0.01178029f,   0.03497339f,   0.11662073f,  -0.14154206f,   0.14351885f,   0.10077798f,
     -0.15467143f,  -0.09065815f,   0.10992682f,   0.14647156f,   0.06211632f,  -0.12900679f,  -0.06211111f,   0.11810482f,
      0.01547492f,   0.15453005f,   0.08574034f,   0.12928776f,   0.00685796f,   0.09775314f,   0.06369939f,   0.16287638f,
      0.00669410f,   0.00815855f,   0.11021705f,   0.06152291f,   0.10082256f,  -0.00667056f,  -0.01556605f,  -0.01480147f,
     -0.00540597f,   0.06665556f,  -0.09438397f,   0.12331723f,   0.05615278f,   0.00359115f,   0.21615313f,  -0.12038486f,
     -0.01436151f,  -0.03420652f,  -0.10094504f,   0.01221071f,  -0.18625106f,   0.09213373f,   0.15565565f,  -0.01718511f,
     -0.12342683f,   0.17772439f,   0.11380216f,   0.06294430f,   0.00253849f,  -0.14349678f,  -0.16840692f,  -0.00107140f,
      0.16224684f,  -0.05215800f,  -0.01862325f,   0.04600476f,  -0.10545657f,  -0.23428465f,  -0.13373514f,  -0.03422192f,
      0.03690452f,  -0.09215917f,  -0.07291326f,   0.16888076f,   0.10006830f,   0.18881030f,   0.13560559f,   0.00171637f,
      0.10978432f,  -0.10185754f,   0.09872344f,  -0.07853521f,   0.10807677f,   0.16359419f,   0.00040787f,  -0.01375216f,
      0.02610946f,   0.10462351f,  -0.10736378f,   0.06033558f,   0.00571487f,   0.08719533f,   0.14103188f,  -0.05372162f,
     -0.18374188f,  -0.04350352f,  -0.16756727f,   0.15840639f,  -0.15977943f,   0.04101326f,   0.08949939f,  -0.04952633f,
      0.09825104f,  -0.13153425f,  -0.07489195f,  -0.02842136f,   0.16748428f,  -0.18772124f,  -0.01889999f,  -0.12958752f,
     -0.04435343f,  -0.13728330f,  -0.04761530f,  -0.14811499f,   0.11090390f,   0.03267252f,   0.09117907f,  -0.13187847f,
     -0.02232239f,  -0.14997458f,  -0.14515381f,   0.21830428f,   0.02189698f,   0.08854987f,  -0.01728144f,   0.05937607f,
      0.05902116f,   0.23373538f,  -0.11414728f,  -0.11240604f,  -0.16097021f,   0.17555316f,   0.14797316f,   0.09890258f,
     -0.01455142f,  -0.09899252f,  -0.03879305f,   0.00373678f,   0.03324947f,   0.06755678f,   0.10783387f,  -0.11463673f,
     -0.08882273f,  -0.11489414f,  -0.16952822f,   0.02593588f,   0.01191528f,  -0.07828213f,  -0.14082979f,  -0.06714687f,
      0.10813472f,   0.08844012f,   0.07384679f,   0.10062069f,   0.09508439f,  -0.01038948f,   0.14406049f,   0.09032602f,
     -0.12730148f,  -0.04367014f,   0.06034615f,   0.01897942f,   0.07921806f,   0.18886428f,  -0.12760518f,  -0.13057318f,
      0.10176586f,   0.09070658f,   0.11139489f,  -0.09340219f,   0.01924979f,  -0.08850173f,  -0.15865718f,   0.15950496f,
      0.14161927f,  -0.08735754f,   0.01606284f,  -0.03955377f,   0.07438210f,  -0.02533864f,  -0.09494556f,  -0.06104983f,
};

static const float point1_bias[48] = {
      0.05451408f,  -0.11975369f,   0.01965627f,  -0.00555236f,  -0.17052592f,  -0.17215070f,  -0.04567777f,  -0.11858018f,
     -0.14319450f,  -0.07455881f,  -0.05614157f,   0.03694611f,   0.17136104f,  -0.02472875f,  -0.03492106f,   0.01915090f,
      0.16672346f,   0.03154788f,   0.03003400f,   0.00282784f,   0.13968439f,   0.07291905f,   0.08132917f,  -0.01652509f,
     -0.16882335f,   0.05019244f,   0.03685112f,   0.01369198f,   0.05906201f,   0.05809019f,   0.14789550f,  -0.00795286f,
     -0.00659840f,   0.12069387f,  -0.03683809f,   0.08034950f,  -0.04342949f,   0.08249114f,  -0.15965310f,  -0.02229375f,
     -0.02854863f,  -0.03111335f,   0.13128956f,   0.05537712f,   0.07930632f,  -0.10645211f,   0.04082732f,  -0.16145334f,
};

static const float bn_p1_weight[48] = {
      1.10061717f,   1.05055308f,   1.12322438f,   1.05914474f,   1.05482757f,   1.05362225f,   1.09649014f,   1.03319407f,
      1.15677869f,   0.99386454f,   1.06377053f,   1.09007692f,   1.14449191f,   1.07148516f,   1.09722459f,   1.02789676f,
      1.01821125f,   1.00361347f,   1.07711554f,   1.04678273f,   1.12041330f,   1.01304185f,   1.02988565f,   1.11993313f,
      1.04490685f,   1.02802408f,   1.03794920f,   1.13581967f,   1.07856858f,   1.05195761f,   1.05035436f,   1.10582495f,
      0.98481339f,   1.13605487f,   0.98057288f,   1.11698186f,   1.03700697f,   1.04279232f,   1.09966052f,   1.08290374f,
      1.01149428f,   1.01647747f,   1.09515762f,   1.02340174f,   1.03417444f,   1.08716786f,   1.12560880f,   1.04107904f,
};

static const float bn_p1_bias[48] = {
      0.03205804f,   0.07478419f,   0.05437677f,  -0.00267678f,  -0.00347234f,   0.02822009f,  -0.01624343f,  -0.01079617f,
      0.09913620f,  -0.03283317f,   0.01724153f,  -0.00306012f,   0.01627371f,  -0.01274156f,   0.00193372f,   0.08937585f,
     -0.03831070f,  -0.04574016f,   0.05195731f,   0.06745699f,   0.00468591f,  -0.01133862f,   0.08566522f,   0.11096746f,
     -0.08037091f,   0.01685352f,  -0.04027898f,  -0.07544809f,   0.02310419f,   0.01982674f,   0.06196347f,   0.03423571f,
     -0.02017199f,  -0.02901218f,   0.07079944f,   0.12355281f,   0.10286126f,  -0.00770377f,   0.07032363f,  -0.00795263f,
     -0.10113104f,   0.02420417f,   0.04607105f,   0.06037850f,   0.03888875f,   0.07237425f,  -0.02786065f,  -0.02837097f,
};

static const float bn_p1_running_mean[48] = {
     -0.06129602f,  -0.02321795f,   0.03855776f,   0.25318155f,  -0.44657174f,  -0.33224249f,  -0.08474310f,  -0.36045143f,
     -0.19320244f,  -0.13577466f,   0.04205173f,   0.00558967f,  -0.12810794f,  -0.11942651f,  -0.19308227f,  -0.03976980f,
     -0.22255176f,  -0.20514950f,   0.20813376f,   0.01483470f,   0.46672180f,  -0.13472714f,   0.19266586f,   0.00595099f,
     -0.44403642f,   0.51845241f,   0.01996256f,   0.07002510f,  -0.07360016f,  -0.14051250f,   0.46084806f,  -0.07386282f,
      0.06757180f,   0.52114773f,  -0.14808661f,   0.14135364f,   0.37969974f,  -0.15794967f,  -0.51590776f,   0.23475254f,
     -0.20696394f,   0.34225670f,   0.08478597f,   0.49934518f,   0.17283089f,  -0.34185991f,  -0.01912236f,   0.07346272f,
};

static const float bn_p1_running_var[48] = {
      0.13548228f,   0.19255143f,   0.18713060f,   0.16053416f,   0.16887513f,   0.16242528f,   0.06041278f,   0.22236063f,
      0.21478479f,   0.17613660f,   0.12985454f,   0.16865157f,   0.19136345f,   0.23467086f,   0.23694421f,   0.19809638f,
      0.24059898f,   0.11612285f,   0.21241985f,   0.11219953f,   0.21379249f,   0.11294241f,   0.08434979f,   0.11482505f,
      0.18902831f,   0.11141649f,   0.10478857f,   0.16325502f,   0.15093917f,   0.09453287f,   0.12302016f,   0.17237054f,
      0.10688697f,   0.15089826f,   0.16249590f,   0.16290526f,   0.22933124f,   0.20659034f,   0.17110762f,   0.14499094f,
      0.20215534f,   0.10639379f,   0.30166274f,   0.31682763f,   0.22172457f,   0.16303450f,   0.16989221f,   0.15293594f,
};

static const float bn_p1_num_batches_tracked[1] = {
    11748.00000000f,
};

static const float se1_fc1_weight[576] = {
      0.19104286f,   0.00287480f,  -0.25986069f,  -0.07759510f,  -0.06841955f,  -0.04506987f,   0.16897886f,   0.10358363f,
     -0.10306659f,   0.09904094f,  -0.13868187f,   0.06572276f,   0.12153128f,   0.06282540f,  -0.15787740f,  -0.11738954f,
      0.12181038f,   0.06306626f,   0.21204521f,   0.03075291f,   0.01955228f,  -0.02350566f,   0.07965012f,  -0.10119297f,
      0.07021208f,   0.04071021f,   0.12030179f,  -0.06459264f,  -0.01098187f,   0.11193813f,  -0.06690685f,  -0.03416226f,
      0.13976596f,   0.03708692f,   0.01516447f,  -0.04351718f,  -0.10693980f,  -0.09866221f,   0.03109122f,   0.05370447f,
      0.04549189f,  -0.09672996f,  -0.15212958f,   0.13161111f,   0.20181321f,   0.10850642f,  -0.18667696f,   0.14933735f,
      0.05950289f,  -0.12468715f,   0.15161641f,   0.16054931f,  -0.10662425f,   0.02549519f,  -0.12591623f,   0.11673959f,
      0.14968815f,  -0.09082216f,  -0.09082587f,   0.16005443f,   0.22890863f,  -0.10544124f,  -0.05804214f,   0.02443124f,
     -0.09676532f,  -0.09100840f,   0.11095774f,   0.09005120f,  -0.14975829f,  -0.02108566f,   0.01056795f,   0.06167681f,
     -0.05214451f,  -0.21541138f,  -0.03474401f,   0.07832139f,  -0.11241361f,   0.12162481f,  -0.07621162f,   0.02521931f,
      0.10466558f,   0.06769527f,  -0.04585742f,  -0.01291185f,  -0.03973203f,   0.07703920f,  -0.00175245f,   0.09052340f,
     -0.03384357f,  -0.07914890f,   0.08058580f,   0.05059965f,   0.06634275f,   0.03068169f,  -0.06731852f,   0.04360513f,
      0.01099801f,  -0.04296605f,   0.22516224f,   0.10174612f,   0.13158320f,  -0.09211288f,   0.08738750f,   0.11275943f,
     -0.03388906f,   0.08285411f,   0.09680821f,  -0.12008807f,   0.17818838f,  -0.12615134f,   0.02294960f,   0.06559362f,
     -0.02001616f,   0.08121037f,  -0.05531090f,   0.08982404f,   0.08897375f,  -0.14184435f,  -0.13468884f,   0.11624467f,
      0.14666122f,   0.05770781f,   0.19331029f,  -0.20017067f,  -0.06522081f,   0.14078422f,   0.17145091f,  -0.10918266f,
      0.13950166f,   0.03819372f,  -0.05824108f,  -0.08382815f,   0.02848786f,   0.03373345f,  -0.06768465f,   0.06923523f,
     -0.16261762f,   0.00033906f,  -0.10201808f,  -0.10067935f,  -0.10383231f,  -0.00170891f,   0.10998314f,  -0.05934986f,
      0.00520925f,   0.02820117f,   0.18442680f,   0.08089077f,   0.17974418f,   0.17313908f,  -0.10741633f,   0.05352936f,
     -0.03712527f,  -0.01443267f,   0.14509559f,   0.13191813f,  -0.07350725f,  -0.14285722f,   0.06571077f,   0.01446560f,
     -0.13146803f,   0.04400626f,  -0.00034103f,   0.12661637f,  -0.08377431f,  -0.06305167f,  -0.05669692f,   0.00087781f,
      0.05752033f,  -0.04320285f,   0.07632017f,   0.10850560f,   0.01106656f,  -0.03907769f,   0.03630375f,  -0.16349965f,
      0.05785597f,  -0.03276196f,  -0.14459580f,   0.07673546f,  -0.11517687f,  -0.18777376f,   0.07655236f,   0.11886896f,
     -0.22643034f,  -0.11546329f,   0.10012027f,   0.06795280f,  -0.01156288f,   0.07856652f,   0.00210596f,   0.14562060f,
      0.09834539f,  -0.03491775f,  -0.07922608f,  -0.10028137f,  -0.08226655f,  -0.07457999f,  -0.05602307f,  -0.00668228f,
     -0.14944929f,   0.01129468f,  -0.02475760f,   0.10300606f,   0.08978941f,   0.06757175f,   0.00415550f,  -0.01581432f,
      0.14852329f,  -0.03608488f,   0.01040677f,   0.02171212f,  -0.07577360f,   0.09072066f,  -0.02084265f,   0.12342262f,
      0.15497459f,   0.07678355f,   0.20335652f,  -0.14104533f,   0.00610427f,   0.04893272f,  -0.11683927f,  -0.15808268f,
     -0.16248707f,  -0.06473240f,  -0.05814663f,  -0.04385062f,   0.15098552f,   0.03676492f,  -0.05906809f,   0.01480691f,
      0.05988827f,  -0.08757491f,  -0.09647314f,  -0.08897343f,   0.00044697f,   0.18198749f,  -0.05260987f,   0.04934208f,
      0.18362620f,   0.05262588f,  -0.03245495f,   0.12397112f,  -0.04505680f,   0.07478186f,   0.20724156f,  -0.07554701f,
      0.28427067f,  -0.05280144f,   0.16643120f,   0.11928391f,  -0.04174340f,  -0.01061498f,   0.06986231f,   0.04506275f,
      0.02885663f,  -0.09344275f,   0.01833131f,  -0.08918164f,   0.28187412f,   0.14719468f,   0.07413726f,   0.06237136f,
     -0.00803929f,   0.10974722f,   0.04713601f,   0.30009228f,   0.06721894f,   0.10099878f,  -0.06439918f,   0.00201417f,
     -0.10138982f,   0.23126967f,   0.00650117f,   0.14821135f,  -0.09964943f,  -0.14574479f,   0.20857552f,   0.03569772f,
      0.12067533f,   0.15476100f,   0.19964430f,   0.03730537f,   0.00704103f,  -0.14103100f,  -0.00916239f,  -0.01766432f,
     -0.02591933f,   0.00964562f,   0.18244195f,   0.04847198f,   0.10730460f,  -0.01483005f,  -0.12924160f,   0.11910308f,
      0.04728856f,  -0.14159054f,   0.11723905f,   0.13484311f,  -0.07770259f,  -0.01961583f,   0.15068501f,   0.05051355f,
      0.11347575f,  -0.06528915f,  -0.01020661f,   0.02113490f,  -0.06185898f,  -0.02103007f,   0.11580961f,   0.09378660f,
     -0.08155452f,   0.08410928f,   0.16908634f,  -0.00995192f,  -0.13742152f,  -0.11802415f,   0.11275973f,  -0.15624952f,
      0.08100928f,  -0.23275726f,   0.12052836f,  -0.01781781f,   0.00575426f,   0.04489180f,  -0.07579531f,   0.04591933f,
      0.07384735f,  -0.13496709f,   0.13518748f,   0.09333856f,   0.04486999f,   0.05112650f,  -0.04190601f,   0.12154459f,
      0.02664059f,   0.16603419f,   0.10375469f,   0.11507618f,   0.03170096f,  -0.07975915f,  -0.12037624f,  -0.03073052f,
     -0.01693040f,  -0.06969152f,  -0.03711283f,   0.01456651f,  -0.09206854f,   0.00332739f,   0.10309818f,   0.00481679f,
      0.07765387f,  -0.09676076f,   0.08081120f,   0.05873436f,  -0.00762721f,  -0.02975144f,   0.04687754f,   0.21923450f,
     -0.00510583f,   0.01677830f,   0.01971046f,  -0.18579684f,   0.10063328f,   0.14900525f,   0.12596245f,   0.06567582f,
     -0.10880466f,  -0.20314901f,  -0.08616030f,  -0.16378444f,   0.01946603f,   0.06906085f,  -0.13251206f,   0.14462540f,
     -0.13430709f,   0.07306602f,   0.01178991f,   0.08452148f,  -0.05176713f,   0.14725150f,  -0.04130816f,   0.02658558f,
     -0.10102188f,   0.12732752f,  -0.09675213f,   0.18761238f,   0.01220575f,   0.13697806f,   0.05042708f,   0.17989551f,
     -0.15133893f,   0.00103046f,  -0.10828365f,  -0.14251532f,  -0.21004310f,   0.20949529f,   0.21639104f,  -0.01839369f,
     -0.00825728f,   0.11905269f,   0.15665716f,   0.15350367f,  -0.05083218f,  -0.13484283f,   0.05078199f,   0.13559687f,
     -0.09540626f,   0.08640290f,  -0.05940528f,   0.06574231f,   0.11194130f,  -0.06083129f,   0.00400267f,   0.02087788f,
      0.03587985f,  -0.15882692f,  -0.01059159f,  -0.10684300f,  -0.08840503f,   0.04666683f,   0.11760688f,   0.00920854f,
     -0.02143008f,   0.15286842f,   0.00855980f,  -0.10714314f,   0.02748202f,   0.19720396f,   0.08407032f,   0.17089753f,
     -0.13100606f,   0.15391250f,   0.20964797f,  -0.08645447f,   0.01792672f,   0.16433409f,   0.00800141f,   0.03577355f,
      0.10843286f,   0.11578959f,  -0.05108214f,  -0.03669074f,   0.01582678f,   0.13919853f,   0.08378278f,   0.12536186f,
      0.08440985f,  -0.10536105f,   0.13406292f,   0.13158511f,  -0.04706090f,  -0.10415585f,   0.08007346f,  -0.17600648f,
     -0.02073534f,  -0.09073116f,   0.07925956f,  -0.05042839f,  -0.15559649f,   0.06251380f,  -0.02084844f,  -0.14641131f,
      0.04668368f,   0.07108422f,  -0.08520614f,  -0.05180807f,   0.12104382f,  -0.06305135f,   0.03078673f,  -0.06094874f,
     -0.03988722f,   0.10311711f,  -0.06027042f,  -0.09354701f,   0.06251567f,   0.02645859f,  -0.12240312f,  -0.08925058f,
      0.00605638f,  -0.06816605f,   0.23552610f,  -0.13689962f,  -0.09425636f,  -0.09525514f,   0.04200339f,   0.01444580f,
      0.11237691f,  -0.10904297f,   0.02432582f,   0.15747002f,   0.19697157f,   0.05103303f,   0.03905045f,   0.07491388f,
     -0.10608305f,   0.03190316f,  -0.05681725f,   0.00378538f,   0.01092433f,  -0.03196581f,   0.08438153f,   0.09537229f,
      0.17564707f,  -0.10834817f,  -0.01687162f,   0.06392642f,  -0.07808404f,   0.15027837f,   0.17071924f,  -0.05519948f,
      0.06666368f,   0.15976653f,   0.00485960f,   0.26060691f,   0.19325404f,  -0.14952303f,   0.11707566f,   0.26176137f,
     -0.03887647f,  -0.01349971f,   0.21824928f,   0.19544093f,   0.06518026f,   0.12467598f,   0.30496240f,   0.13231365f,
     -0.02228690f,   0.16372307f,   0.06017692f,   0.03953674f,  -0.08248085f,  -0.03408964f,  -0.04504963f,   0.03498892f,
      0.11708555f,  -0.14744931f,   0.03670342f,   0.10661155f,   0.16519864f,  -0.06038082f,   0.07052500f,   0.09021800f,
      0.04498662f,  -0.14559555f,  -0.09898251f,   0.15279789f,  -0.15927336f,  -0.16843905f,   0.10442588f,   0.06442002f,
     -0.09903893f,  -0.00705755f,   0.10595785f,   0.08527211f,   0.12070169f,  -0.11243761f,   0.12439257f,   0.06181911f,
      0.10956921f,  -0.01598716f,  -0.05454166f,   0.07944925f,  -0.00117699f,   0.16897804f,   0.00443961f,  -0.03323880f,
      0.12141344f,  -0.00499148f,   0.18391086f,   0.09753663f,  -0.11903505f,  -0.06377531f,  -0.12614262f,   0.06228394f,
};

static const float se1_fc1_bias[12] = {
     -0.02265107f,   0.01544368f,  -0.05392645f,   0.18461135f,   0.12207256f,   0.09810916f,  -0.00008418f,   0.13779238f,
      0.06650428f,   0.04359135f,   0.17052570f,  -0.02588407f,
};

static const float se1_fc2_weight[576] = {
      0.09689971f,   0.21463463f,  -0.12721841f,   0.07422250f,  -0.26336864f,  -0.14426017f,   0.13440348f,   0.19473025f,
     -0.07995067f,  -0.20711075f,  -0.27769724f,   0.03483404f,   0.15737063f,  -0.06709179f,   0.01386347f,   0.21027522f,
     -0.22080061f,  -0.23701882f,   0.19976635f,  -0.17551750f,  -0.32424858f,   0.03794807f,  -0.17506076f,  -0.13134660f,
     -0.07132059f,   0.29060933f,   0.13345005f,   0.29966944f,   0.29891711f,  -0.28795415f,   0.23312941f,  -0.04465516f,
      0.25555176f,   0.20304723f,   0.02448552f,  -0.01021509f,   0.05208065f,   0.22252786f,  -0.27430400f,  -0.06759601f,
     -0.11488799f,   0.14123926f,  -0.03308621f,   0.17975226f,  -0.01549594f,  -0.12602687f,  -0.24479043f,   0.21563740f,
     -0.17890096f,  -0.07278801f,   0.15709980f,   0.32214391f,   0.25431150f,  -0.15639806f,  -0.10970721f,   0.35664022f,
     -0.00948369f,   0.08626568f,  -0.19556257f,   0.04936001f,   0.07336224f,  -0.40754810f,  -0.15877125f,   0.15365465f,
     -0.19873554f,   0.26888472f,  -0.04089326f,  -0.23210473f,  -0.14744419f,   0.01986557f,   0.10795818f,   0.06802348f,
     -0.28024584f,  -0.25975558f,  -0.10457611f,   0.08571175f,  -0.30241364f,   0.01259393f,  -0.23321247f,  -0.20011112f,
      0.00182487f,  -0.07275858f,  -0.17242511f,   0.17909461f,  -0.02997626f,  -0.00998175f,   0.15177652f,  -0.21163690f,
     -0.15795870f,   0.04163041f,  -0.29457349f,  -0.05080399f,   0.26761210f,  -0.06408131f,  -0.03384759f,   0.12760381f,
     -0.14598766f,  -0.30424383f,  -0.32841593f,  -0.29297289f,   0.24677928f,  -0.00853777f,   0.04838905f,   0.19099893f,
     -0.13613391f,  -0.31433490f,   0.12429369f,   0.22044198f,   0.01297268f,   0.17578448f,   0.08961316f,   0.03548781f,
      0.03979412f,  -0.18245955f,  -0.19205126f,   0.08869711f,  -0.20422356f,  -0.16960318f,   0.19735506f,  -0.28901744f,
     -0.09008650f,  -0.13274324f,   0.07831863f,   0.10845673f,  -0.12695460f,   0.14570379f,  -0.18205839f,   0.05866377f,
      0.20883201f,   0.29059437f,  -0.23874892f,  -0.24711403f,   0.08854546f,  -0.39026251f,  -0.08271046f,   0.03791799f,
     -0.19135183f,   0.08740859f,  -0.03005056f,   0.22819047f,   0.16412415f,   0.01694914f,   0.03487263f,   0.20680922f,
      0.14884548f,  -0.00802490f,   0.01886013f,  -0.22311078f,   0.33428100f,  -0.33455172f,   0.16186981f,   0.29985258f,
     -0.01835990f,   0.22283532f,  -0.04776178f,  -0.09646722f,   0.13632187f,  -0.03555623f,  -0.32368767f,  -0.05820657f,
      0.24082960f,  -0.16494243f,   0.01119690f,   0.11750618f,   0.12359474f,   0.19417299f,   0.19791980f,   0.18315203f,
      0.25536469f,   0.01409225f,   0.00856597f,  -0.14774011f,  -0.22301440f,   0.00495319f,  -0.02825250f,  -0.33877662f,
      0.05953821f,  -0.24537793f,  -0.08018126f,  -0.31176499f,  -0.16618769f,  -0.16417807f,  -0.06450103f,   0.29712215f,
      0.18517184f,   0.01046874f,  -0.25646245f,   0.26822829f,   0.32845035f,  -0.03281597f,  -0.35052350f,  -0.31866047f,
      0.27852064f,  -0.33419237f,  -0.19951478f,  -0.00528332f,  -0.08204263f,   0.30627802f,  -0.18282998f,  -0.10006617f,
      0.18298401f,   0.08848827f,  -0.28889251f,  -0.34415996f,  -0.16605419f,  -0.36575308f,  -0.15008692f,  -0.20635726f,
     -0.33874410f,   0.01346451f,   0.04853686f,  -0.28050593f,  -0.14557937f,   0.15433267f,  -0.02160712f,  -0.26603150f,
      0.16006561f,  -0.02468298f,   0.18707386f,   0.26399100f,   0.18408896f,   0.15917492f,   0.25003573f,   0.25342712f,
      0.21462327f,  -0.04160750f,   0.03720609f,  -0.16300346f,   0.27934536f,  -0.25876519f,   0.34097174f,  -0.10059057f,
      0.32417464f,   0.13908821f,   0.09231838f,   0.35496771f,   0.06426857f,   0.21474349f,  -0.18674637f,   0.08473337f,
      0.13368860f,   0.10830393f,   0.13865539f,   0.19105908f,  -0.18501249f,   0.16407584f,  -0.02319964f,   0.12512732f,
      0.12861030f,  -0.06595115f,   0.00457929f,   0.09983461f,   0.24427819f,  -0.13780938f,  -0.38611481f,  -0.13471358f,
      0.22560278f,  -0.18016668f,   0.19275311f,  -0.31653124f,  -0.31548852f,  -0.26980254f,  -0.26774314f,   0.03617468f,
     -0.17366496f,   0.04258789f,   0.09879283f,   0.05716832f,   0.24318159f,   0.07282093f,   0.21366490f,  -0.20059793f,
      0.25431985f,   0.24216335f,  -0.19099572f,   0.24910896f,   0.02404391f,  -0.13203359f,   0.14399010f,   0.14747836f,
     -0.10576865f,  -0.27037799f,   0.17572187f,   0.04001438f,   0.22611265f,   0.08611480f,  -0.06550293f,  -0.13300945f,
      0.28969985f,  -0.07261898f,   0.29406166f,  -0.10698306f,   0.08194446f,  -0.28441298f,   0.04856904f,  -0.06455486f,
      0.13780709f,  -0.12785490f,   0.29976213f,   0.27139014f,   0.31918630f,  -0.04808925f,   0.06643996f,  -0.24784896f,
     -0.14343923f,   0.29300761f,   0.20855923f,  -0.00935470f,  -0.17379467f,   0.28755745f,  -0.15867935f,   0.16859119f,
      0.05960299f,  -0.00945094f,   0.11851529f,  -0.09786865f,   0.04533338f,  -0.18104446f,   0.33146471f,   0.27798048f,
      0.05454260f,   0.38145739f,  -0.23741280f,  -0.23619738f,  -0.10357098f,  -0.22542039f,   0.01294315f,   0.01478359f,
      0.06970342f,  -0.28718981f,   0.17632015f,  -0.25100887f,  -0.01648410f,  -0.07791404f,  -0.15873463f,  -0.12686494f,
